
        <?xml version="1.0"?>
        <MethodSetup Method="BDT::bdt">
        <GeneralInfo>
        <Info name="TMVA Release" value=""/>
        <Info name="ROOT Release" value=""/>
        <Info name="Creator" value="mlglue"/>
        <Info name="Date" value=""/>
        <Info name="Host" value=""/>
        <Info name="Dir" value=""/>
        <Info name="Training events" value="-1"/>
        <Info name="TrainingTime" value="-1"/>
        <Info name="AnalysisType" value="Classification"/>
        </GeneralInfo>
        <Options>
        <Option name="NTrees" modified="Yes">10</Option>
        <Option name="MaxDepth" modified="Yes">6</Option>
        <Option name="BoostType" modified="Yes">Grad</Option>
        <Option name="Shrinkage" modified="Yes">0.3</Option>
        <Option name="UseNvars" modified="Yes">10</Option>
        </Options>

        <Variables NVar="10">
        <Variable VarIndex="0" Expression="leadmva" Label="leadmva" Title="leadmva" Unit="" Internal="leadmva" Type="F" Min="0.0000000000000000000000000000000000000000000000000000000000000000E+00" Max="0.0000000000000000000000000000000000000000000000000000000000000000E+00"/>
<Variable VarIndex="1" Expression="subleadmva" Label="subleadmva" Title="subleadmva" Unit="" Internal="subleadmva" Type="F" Min="0.0000000000000000000000000000000000000000000000000000000000000000E+00" Max="0.0000000000000000000000000000000000000000000000000000000000000000E+00"/>
<Variable VarIndex="2" Expression="leadptom" Label="leadptom" Title="leadptom" Unit="" Internal="leadptom" Type="F" Min="0.0000000000000000000000000000000000000000000000000000000000000000E+00" Max="0.0000000000000000000000000000000000000000000000000000000000000000E+00"/>
<Variable VarIndex="3" Expression="subleadptom" Label="subleadptom" Title="subleadptom" Unit="" Internal="subleadptom" Type="F" Min="0.0000000000000000000000000000000000000000000000000000000000000000E+00" Max="0.0000000000000000000000000000000000000000000000000000000000000000E+00"/>
<Variable VarIndex="4" Expression="leadeta" Label="leadeta" Title="leadeta" Unit="" Internal="leadeta" Type="F" Min="0.0000000000000000000000000000000000000000000000000000000000000000E+00" Max="0.0000000000000000000000000000000000000000000000000000000000000000E+00"/>
<Variable VarIndex="5" Expression="subleadeta" Label="subleadeta" Title="subleadeta" Unit="" Internal="subleadeta" Type="F" Min="0.0000000000000000000000000000000000000000000000000000000000000000E+00" Max="0.0000000000000000000000000000000000000000000000000000000000000000E+00"/>
<Variable VarIndex="6" Expression="CosPhi" Label="CosPhi" Title="CosPhi" Unit="" Internal="CosPhi" Type="F" Min="0.0000000000000000000000000000000000000000000000000000000000000000E+00" Max="0.0000000000000000000000000000000000000000000000000000000000000000E+00"/>
<Variable VarIndex="7" Expression="vtxprob" Label="vtxprob" Title="vtxprob" Unit="" Internal="vtxprob" Type="F" Min="0.0000000000000000000000000000000000000000000000000000000000000000E+00" Max="0.0000000000000000000000000000000000000000000000000000000000000000E+00"/>
<Variable VarIndex="8" Expression="sigmarv" Label="sigmarv" Title="sigmarv" Unit="" Internal="sigmarv" Type="F" Min="0.0000000000000000000000000000000000000000000000000000000000000000E+00" Max="0.0000000000000000000000000000000000000000000000000000000000000000E+00"/>
<Variable VarIndex="9" Expression="sigmawv" Label="sigmawv" Title="sigmawv" Unit="" Internal="sigmawv" Type="F" Min="0.0000000000000000000000000000000000000000000000000000000000000000E+00" Max="0.0000000000000000000000000000000000000000000000000000000000000000E+00"/>

        </Variables>

        <Classes NClass="2">
        <Class Name="bkg" Index="0"/>
<Class Name="sig" Index="1"/>

        </Classes>

        <Targets NTrgt="0">
        
        </Targets>

        <Transformations NTransformations="0"/>
        <MVAPdfs/>
        <Weights NTrees="10" AnalysisType="1">
        <BinaryTree type="DecisionTree" boostWeight="0.0" itree="0">
    <Node pos="c" depth="1" NCoef="0"     IVar="1" Cut="    -2.174380E-01" cType="1"     res="     0.000000E+00" rms="0.0"     purity="0.00000000E+00" nType="0">
        <Node pos="l" depth="2" NCoef="0"     IVar="6" Cut="    -7.601567E-01" cType="1"     res="     0.000000E+00" rms="0.0"     purity="0.00000000E+00" nType="0">
            <Node pos="l" depth="3" NCoef="0"     IVar="1" Cut="    -6.005414E-01" cType="1"     res="     0.000000E+00" rms="0.0"     purity="0.00000000E+00" nType="0">
                <Node pos="l" depth="4" NCoef="0"     IVar="3" Cut="     4.220239E-01" cType="1"     res="     0.000000E+00" rms="0.0"     purity="0.00000000E+00" nType="0">
                    <Node pos="l" depth="5" NCoef="0"     IVar="6" Cut="    -9.338145E-01" cType="1"     res="     0.000000E+00" rms="0.0"     purity="0.00000000E+00" nType="0">
                        <Node pos="l" depth="6" NCoef="0"     IVar="1" Cut="    -7.233930E-01" cType="1"     res="     0.000000E+00" rms="0.0"     purity="0.00000000E+00" nType="0">
                            <Node pos="l" depth="7" NCoef="0"     IVar="-1" Cut="     0.000000E+00" cType="1"     res="    -4.608499E-01" rms="0.0e-00"     purity="0.00000000E+00" nType="-99">
                            </Node>
                            <Node pos="r" depth="7" NCoef="0"     IVar="-1" Cut="     0.000000E+00" cType="1"     res="    -3.496704E-01" rms="0.0e-00"     purity="0.00000000E+00" nType="-99">
                            </Node>
                        </Node>
                        <Node pos="r" depth="6" NCoef="0"     IVar="1" Cut="    -7.233930E-01" cType="1"     res="     0.000000E+00" rms="0.0"     purity="0.00000000E+00" nType="0">
                            <Node pos="l" depth="7" NCoef="0"     IVar="-1" Cut="     0.000000E+00" cType="1"     res="    -3.332433E-01" rms="0.0e-00"     purity="0.00000000E+00" nType="-99">
                            </Node>
                            <Node pos="r" depth="7" NCoef="0"     IVar="-1" Cut="     0.000000E+00" cType="1"     res="    -1.336707E-01" rms="0.0e-00"     purity="0.00000000E+00" nType="-99">
                            </Node>
                        </Node>
                    </Node>
                    <Node pos="r" depth="5" NCoef="0"     IVar="6" Cut="    -9.750693E-01" cType="1"     res="     0.000000E+00" rms="0.0"     purity="0.00000000E+00" nType="0">
                        <Node pos="l" depth="6" NCoef="0"     IVar="1" Cut="    -8.218520E-01" cType="1"     res="     0.000000E+00" rms="0.0"     purity="0.00000000E+00" nType="0">
                            <Node pos="l" depth="7" NCoef="0"     IVar="-1" Cut="     0.000000E+00" cType="1"     res="    -3.700700E-01" rms="0.0e-00"     purity="0.00000000E+00" nType="-99">
                            </Node>
                            <Node pos="r" depth="7" NCoef="0"     IVar="-1" Cut="     0.000000E+00" cType="1"     res="    -1.846425E-01" rms="0.0e-00"     purity="0.00000000E+00" nType="-99">
                            </Node>
                        </Node>
                        <Node pos="r" depth="6" NCoef="0"     IVar="1" Cut="    -8.218520E-01" cType="1"     res="     0.000000E+00" rms="0.0"     purity="0.00000000E+00" nType="0">
                            <Node pos="l" depth="7" NCoef="0"     IVar="-1" Cut="     0.000000E+00" cType="1"     res="    -2.085131E-01" rms="0.0e-00"     purity="0.00000000E+00" nType="-99">
                            </Node>
                            <Node pos="r" depth="7" NCoef="0"     IVar="-1" Cut="     0.000000E+00" cType="1"     res="     4.679616E-02" rms="0.0e-00"     purity="0.00000000E+00" nType="-99">
                            </Node>
                        </Node>
                    </Node>
                </Node>
                <Node pos="r" depth="4" NCoef="0"     IVar="3" Cut="     3.573457E-01" cType="1"     res="     0.000000E+00" rms="0.0"     purity="0.00000000E+00" nType="0">
                    <Node pos="l" depth="5" NCoef="0"     IVar="2" Cut="     6.122671E-01" cType="1"     res="     0.000000E+00" rms="0.0"     purity="0.00000000E+00" nType="0">
                        <Node pos="l" depth="6" NCoef="0"     IVar="6" Cut="    -9.253471E-01" cType="1"     res="     0.000000E+00" rms="0.0"     purity="0.00000000E+00" nType="0">
                            <Node pos="l" depth="7" NCoef="0"     IVar="-1" Cut="     0.000000E+00" cType="1"     res="    -3.458778E-01" rms="0.0e-00"     purity="0.00000000E+00" nType="-99">
                            </Node>
                            <Node pos="r" depth="7" NCoef="0"     IVar="-1" Cut="     0.000000E+00" cType="1"     res="    -9.618845E-02" rms="0.0e-00"     purity="0.00000000E+00" nType="-99">
                            </Node>
                        </Node>
                        <Node pos="r" depth="6" NCoef="0"     IVar="6" Cut="    -9.405403E-01" cType="1"     res="     0.000000E+00" rms="0.0"     purity="0.00000000E+00" nType="0">
                            <Node pos="l" depth="7" NCoef="0"     IVar="-1" Cut="     0.000000E+00" cType="1"     res="    -1.541770E-01" rms="0.0e-00"     purity="0.00000000E+00" nType="-99">
                            </Node>
                            <Node pos="r" depth="7" NCoef="0"     IVar="-1" Cut="     0.000000E+00" cType="1"     res="     1.852275E-02" rms="0.0e-00"     purity="0.00000000E+00" nType="-99">
                            </Node>
                        </Node>
                    </Node>
                    <Node pos="r" depth="5" NCoef="0"     IVar="6" Cut="    -9.708257E-01" cType="1"     res="     0.000000E+00" rms="0.0"     purity="0.00000000E+00" nType="0">
                        <Node pos="l" depth="6" NCoef="0"     IVar="3" Cut="     4.071528E-01" cType="1"     res="     0.000000E+00" rms="0.0"     purity="0.00000000E+00" nType="0">
                            <Node pos="l" depth="7" NCoef="0"     IVar="-1" Cut="     0.000000E+00" cType="1"     res="    -1.306251E-01" rms="0.0e-00"     purity="0.00000000E+00" nType="-99">
                            </Node>
                            <Node pos="r" depth="7" NCoef="0"     IVar="-1" Cut="     0.000000E+00" cType="1"     res="     4.653379E-02" rms="0.0e-00"     purity="0.00000000E+00" nType="-99">
                            </Node>
                        </Node>
                        <Node pos="r" depth="6" NCoef="0"     IVar="3" Cut="     4.292606E-01" cType="1"     res="     0.000000E+00" rms="0.0"     purity="0.00000000E+00" nType="0">
                            <Node pos="l" depth="7" NCoef="0"     IVar="-1" Cut="     0.000000E+00" cType="1"     res="     1.411819E-01" rms="0.0e-00"     purity="0.00000000E+00" nType="-99">
                            </Node>
                            <Node pos="r" depth="7" NCoef="0"     IVar="-1" Cut="     0.000000E+00" cType="1"     res="     2.881351E-01" rms="0.0e-00"     purity="0.00000000E+00" nType="-99">
                            </Node>
                        </Node>
                    </Node>
                </Node>
            </Node>
            <Node pos="r" depth="3" NCoef="0"     IVar="3" Cut="     3.729923E-01" cType="1"     res="     0.000000E+00" rms="0.0"     purity="0.00000000E+00" nType="0">
                <Node pos="l" depth="4" NCoef="0"     IVar="2" Cut="     6.693738E-01" cType="1"     res="     0.000000E+00" rms="0.0"     purity="0.00000000E+00" nType="0">
                    <Node pos="l" depth="5" NCoef="0"     IVar="1" Cut="    -6.005414E-01" cType="1"     res="     0.000000E+00" rms="0.0"     purity="0.00000000E+00" nType="0">
                        <Node pos="l" depth="6" NCoef="0"     IVar="0" Cut="    -5.927058E-02" cType="1"     res="     0.000000E+00" rms="0.0"     purity="0.00000000E+00" nType="0">
                            <Node pos="l" depth="7" NCoef="0"     IVar="-1" Cut="     0.000000E+00" cType="1"     res="    -4.355172E-01" rms="0.0e-00"     purity="0.00000000E+00" nType="-99">
                            </Node>
                            <Node pos="r" depth="7" NCoef="0"     IVar="-1" Cut="     0.000000E+00" cType="1"     res="    -1.503463E-01" rms="0.0e-00"     purity="0.00000000E+00" nType="-99">
                            </Node>
                        </Node>
                        <Node pos="r" depth="6" NCoef="0"     IVar="0" Cut="    -2.195750E-01" cType="1"     res="     0.000000E+00" rms="0.0"     purity="0.00000000E+00" nType="0">
                            <Node pos="l" depth="7" NCoef="0"     IVar="-1" Cut="     0.000000E+00" cType="1"     res="    -2.315265E-01" rms="0.0e-00"     purity="0.00000000E+00" nType="-99">
                            </Node>
                            <Node pos="r" depth="7" NCoef="0"     IVar="-1" Cut="     0.000000E+00" cType="1"     res="     1.530644E-01" rms="0.0e-00"     purity="0.00000000E+00" nType="-99">
                            </Node>
                        </Node>
                    </Node>
                    <Node pos="r" depth="5" NCoef="0"     IVar="1" Cut="    -6.005414E-01" cType="1"     res="     0.000000E+00" rms="0.0"     purity="0.00000000E+00" nType="0">
                        <Node pos="l" depth="6" NCoef="0"     IVar="6" Cut="    -4.901481E-01" cType="1"     res="     0.000000E+00" rms="0.0"     purity="0.00000000E+00" nType="0">
                            <Node pos="l" depth="7" NCoef="0"     IVar="-1" Cut="     0.000000E+00" cType="1"     res="     1.346114E-02" rms="0.0e-00"     purity="0.00000000E+00" nType="-99">
                            </Node>
                            <Node pos="r" depth="7" NCoef="0"     IVar="-1" Cut="     0.000000E+00" cType="1"     res="     2.741097E-01" rms="0.0e-00"     purity="0.00000000E+00" nType="-99">
                            </Node>
                        </Node>
                        <Node pos="r" depth="6" NCoef="0"     IVar="6" Cut="    -5.368935E-01" cType="1"     res="     0.000000E+00" rms="0.0"     purity="0.00000000E+00" nType="0">
                            <Node pos="l" depth="7" NCoef="0"     IVar="-1" Cut="     0.000000E+00" cType="1"     res="     2.583132E-01" rms="0.0e-00"     purity="0.00000000E+00" nType="-99">
                            </Node>
                            <Node pos="r" depth="7" NCoef="0"     IVar="-1" Cut="     0.000000E+00" cType="1"     res="     4.327868E-01" rms="0.0e-00"     purity="0.00000000E+00" nType="-99">
                            </Node>
                        </Node>
                    </Node>
                </Node>
                <Node pos="r" depth="4" NCoef="0"     IVar="6" Cut="    -4.339541E-01" cType="1"     res="     0.000000E+00" rms="0.0"     purity="0.00000000E+00" nType="0">
                    <Node pos="l" depth="5" NCoef="0"     IVar="1" Cut="    -7.233930E-01" cType="1"     res="     0.000000E+00" rms="0.0"     purity="0.00000000E+00" nType="0">
                        <Node pos="l" depth="6" NCoef="0"     IVar="3" Cut="     4.878322E-01" cType="1"     res="     0.000000E+00" rms="0.0"     purity="0.00000000E+00" nType="0">
                            <Node pos="l" depth="7" NCoef="0"     IVar="-1" Cut="     0.000000E+00" cType="1"     res="     7.873259E-02" rms="0.0e-00"     purity="0.00000000E+00" nType="-99">
                            </Node>
                            <Node pos="r" depth="7" NCoef="0"     IVar="-1" Cut="     0.000000E+00" cType="1"     res="     3.475218E-01" rms="0.0e-00"     purity="0.00000000E+00" nType="-99">
                            </Node>
                        </Node>
                        <Node pos="r" depth="6" NCoef="0"     IVar="6" Cut="    -6.809497E-01" cType="1"     res="     0.000000E+00" rms="0.0"     purity="0.00000000E+00" nType="0">
                            <Node pos="l" depth="7" NCoef="0"     IVar="-1" Cut="     0.000000E+00" cType="1"     res="     3.230260E-01" rms="0.0e-00"     purity="0.00000000E+00" nType="-99">
                            </Node>
                            <Node pos="r" depth="7" NCoef="0"     IVar="-1" Cut="     0.000000E+00" cType="1"     res="     4.294523E-01" rms="0.0e-00"     purity="0.00000000E+00" nType="-99">
                            </Node>
                        </Node>
                    </Node>
                    <Node pos="r" depth="5" NCoef="0"     IVar="2" Cut="     6.502568E-01" cType="1"     res="     0.000000E+00" rms="0.0"     purity="0.00000000E+00" nType="0">
                        <Node pos="l" depth="6" NCoef="0"     IVar="0" Cut="    -6.474368E-01" cType="1"     res="     0.000000E+00" rms="0.0"     purity="0.00000000E+00" nType="0">
                            <Node pos="l" depth="7" NCoef="0"     IVar="-1" Cut="     0.000000E+00" cType="1"     res="    -1.016298E-01" rms="0.0e-00"     purity="0.00000000E+00" nType="-99">
                            </Node>
                            <Node pos="r" depth="7" NCoef="0"     IVar="-1" Cut="     0.000000E+00" cType="1"     res="     4.703467E-01" rms="0.0e-00"     purity="0.00000000E+00" nType="-99">
                            </Node>
                        </Node>
                        <Node pos="r" depth="6" NCoef="0"     IVar="3" Cut="     4.939122E-01" cType="1"     res="     0.000000E+00" rms="0.0"     purity="0.00000000E+00" nType="0">
                            <Node pos="l" depth="7" NCoef="0"     IVar="-1" Cut="     0.000000E+00" cType="1"     res="     5.176786E-01" rms="0.0e-00"     purity="0.00000000E+00" nType="-99">
                            </Node>
                            <Node pos="r" depth="7" NCoef="0"     IVar="-1" Cut="     0.000000E+00" cType="1"     res="     5.721496E-01" rms="0.0e-00"     purity="0.00000000E+00" nType="-99">
                            </Node>
                        </Node>
                    </Node>
                </Node>
            </Node>
        </Node>
        <Node pos="r" depth="2" NCoef="0"     IVar="6" Cut="    -8.353049E-01" cType="1"     res="     0.000000E+00" rms="0.0"     purity="0.00000000E+00" nType="0">
            <Node pos="l" depth="3" NCoef="0"     IVar="1" Cut="     3.547931E-01" cType="1"     res="     0.000000E+00" rms="0.0"     purity="0.00000000E+00" nType="0">
                <Node pos="l" depth="4" NCoef="0"     IVar="3" Cut="     3.573457E-01" cType="1"     res="     0.000000E+00" rms="0.0"     purity="0.00000000E+00" nType="0">
                    <Node pos="l" depth="5" NCoef="0"     IVar="2" Cut="     5.249346E-01" cType="1"     res="     0.000000E+00" rms="0.0"     purity="0.00000000E+00" nType="0">
                        <Node pos="l" depth="6" NCoef="0"     IVar="6" Cut="    -9.750693E-01" cType="1"     res="     0.000000E+00" rms="0.0"     purity="0.00000000E+00" nType="0">
                            <Node pos="l" depth="7" NCoef="0"     IVar="-1" Cut="     0.000000E+00" cType="1"     res="    -1.016807E-01" rms="0.0e-00"     purity="0.00000000E+00" nType="-99">
                            </Node>
                            <Node pos="r" depth="7" NCoef="0"     IVar="-1" Cut="     0.000000E+00" cType="1"     res="     7.945861E-02" rms="0.0e-00"     purity="0.00000000E+00" nType="-99">
                            </Node>
                        </Node>
                        <Node pos="r" depth="6" NCoef="0"     IVar="1" Cut="     1.021798E-02" cType="1"     res="     0.000000E+00" rms="0.0"     purity="0.00000000E+00" nType="0">
                            <Node pos="l" depth="7" NCoef="0"     IVar="-1" Cut="     0.000000E+00" cType="1"     res="     4.336280E-02" rms="0.0e-00"     purity="0.00000000E+00" nType="-99">
                            </Node>
                            <Node pos="r" depth="7" NCoef="0"     IVar="-1" Cut="     0.000000E+00" cType="1"     res="     2.105367E-01" rms="0.0e-00"     purity="0.00000000E+00" nType="-99">
                            </Node>
                        </Node>
                    </Node>
                    <Node pos="r" depth="5" NCoef="0"     IVar="6" Cut="    -9.883878E-01" cType="1"     res="     0.000000E+00" rms="0.0"     purity="0.00000000E+00" nType="0">
                        <Node pos="l" depth="6" NCoef="0"     IVar="1" Cut="     1.021798E-02" cType="1"     res="     0.000000E+00" rms="0.0"     purity="0.00000000E+00" nType="0">
                            <Node pos="l" depth="7" NCoef="0"     IVar="-1" Cut="     0.000000E+00" cType="1"     res="     1.208891E-01" rms="0.0e-00"     purity="0.00000000E+00" nType="-99">
                            </Node>
                            <Node pos="r" depth="7" NCoef="0"     IVar="-1" Cut="     0.000000E+00" cType="1"     res="     2.477444E-01" rms="0.0e-00"     purity="0.00000000E+00" nType="-99">
                            </Node>
                        </Node>
                        <Node pos="r" depth="6" NCoef="0"     IVar="6" Cut="    -9.405403E-01" cType="1"     res="     0.000000E+00" rms="0.0"     purity="0.00000000E+00" nType="0">
                            <Node pos="l" depth="7" NCoef="0"     IVar="-1" Cut="     0.000000E+00" cType="1"     res="     3.090721E-01" rms="0.0e-00"     purity="0.00000000E+00" nType="-99">
                            </Node>
                            <Node pos="r" depth="7" NCoef="0"     IVar="-1" Cut="     0.000000E+00" cType="1"     res="     3.975051E-01" rms="0.0e-00"     purity="0.00000000E+00" nType="-99">
                            </Node>
                        </Node>
                    </Node>
                </Node>
                <Node pos="r" depth="4" NCoef="0"     IVar="2" Cut="     4.459256E-01" cType="1"     res="     0.000000E+00" rms="0.0"     purity="0.00000000E+00" nType="0">
                    <Node pos="l" depth="5" NCoef="0"     IVar="0" Cut="    -4.140826E-01" cType="1"     res="     0.000000E+00" rms="0.0"     purity="0.00000000E+00" nType="0">
                        <Node pos="l" depth="6" NCoef="0"     IVar="0" Cut="    -6.474368E-01" cType="1"     res="     0.000000E+00" rms="0.0"     purity="0.00000000E+00" nType="0">
                            <Node pos="l" depth="7" NCoef="0"     IVar="-1" Cut="     0.000000E+00" cType="1"     res="    -2.971893E-01" rms="0.0e-00"     purity="0.00000000E+00" nType="-99">
                            </Node>
                            <Node pos="r" depth="7" NCoef="0"     IVar="-1" Cut="     0.000000E+00" cType="1"     res="     6.835584E-03" rms="0.0e-00"     purity="0.00000000E+00" nType="-99">
                            </Node>
                        </Node>
                        <Node pos="r" depth="6" NCoef="0"     IVar="2" Cut="     3.887036E-01" cType="1"     res="     0.000000E+00" rms="0.0"     purity="0.00000000E+00" nType="0">
                            <Node pos="l" depth="7" NCoef="0"     IVar="-1" Cut="     0.000000E+00" cType="1"     res="     2.104457E-01" rms="0.0e-00"     purity="0.00000000E+00" nType="-99">
                            </Node>
                            <Node pos="r" depth="7" NCoef="0"     IVar="-1" Cut="     0.000000E+00" cType="1"     res="     3.192993E-01" rms="0.0e-00"     purity="0.00000000E+00" nType="-99">
                            </Node>
                        </Node>
                    </Node>
                    <Node pos="r" depth="5" NCoef="0"     IVar="0" Cut="    -6.474368E-01" cType="1"     res="     0.000000E+00" rms="0.0"     purity="0.00000000E+00" nType="0">
                        <Node pos="l" depth="6" NCoef="0"     IVar="2" Cut="     5.339677E-01" cType="1"     res="     0.000000E+00" rms="0.0"     purity="0.00000000E+00" nType="0">
                            <Node pos="l" depth="7" NCoef="0"     IVar="-1" Cut="     0.000000E+00" cType="1"     res="    -2.413741E-02" rms="0.0e-00"     purity="0.00000000E+00" nType="-99">
                            </Node>
                            <Node pos="r" depth="7" NCoef="0"     IVar="-1" Cut="     0.000000E+00" cType="1"     res="     1.848250E-01" rms="0.0e-00"     purity="0.00000000E+00" nType="-99">
                            </Node>
                        </Node>
                        <Node pos="r" depth="6" NCoef="0"     IVar="3" Cut="     3.368928E-01" cType="1"     res="     0.000000E+00" rms="0.0"     purity="0.00000000E+00" nType="0">
                            <Node pos="l" depth="7" NCoef="0"     IVar="-1" Cut="     0.000000E+00" cType="1"     res="     3.732676E-01" rms="0.0e-00"     purity="0.00000000E+00" nType="-99">
                            </Node>
                            <Node pos="r" depth="7" NCoef="0"     IVar="-1" Cut="     0.000000E+00" cType="1"     res="     4.434349E-01" rms="0.0e-00"     purity="0.00000000E+00" nType="-99">
                            </Node>
                        </Node>
                    </Node>
                </Node>
            </Node>
            <Node pos="r" depth="3" NCoef="0"     IVar="3" Cut="     4.029723E-01" cType="1"     res="     0.000000E+00" rms="0.0"     purity="0.00000000E+00" nType="0">
                <Node pos="l" depth="4" NCoef="0"     IVar="2" Cut="     5.249346E-01" cType="1"     res="     0.000000E+00" rms="0.0"     purity="0.00000000E+00" nType="0">
                    <Node pos="l" depth="5" NCoef="0"     IVar="0" Cut="    -4.140826E-01" cType="1"     res="     0.000000E+00" rms="0.0"     purity="0.00000000E+00" nType="0">
                        <Node pos="l" depth="6" NCoef="0"     IVar="0" Cut="    -6.474368E-01" cType="1"     res="     0.000000E+00" rms="0.0"     purity="0.00000000E+00" nType="0">
                            <Node pos="l" depth="7" NCoef="0"     IVar="-1" Cut="     0.000000E+00" cType="1"     res="     1.342304E-02" rms="0.0e-00"     purity="0.00000000E+00" nType="-99">
                            </Node>
                            <Node pos="r" depth="7" NCoef="0"     IVar="-1" Cut="     0.000000E+00" cType="1"     res="     2.377455E-01" rms="0.0e-00"     purity="0.00000000E+00" nType="-99">
                            </Node>
                        </Node>
                        <Node pos="r" depth="6" NCoef="0"     IVar="3" Cut="     3.278578E-01" cType="1"     res="     0.000000E+00" rms="0.0"     purity="0.00000000E+00" nType="0">
                            <Node pos="l" depth="7" NCoef="0"     IVar="-1" Cut="     0.000000E+00" cType="1"     res="     3.654578E-01" rms="0.0e-00"     purity="0.00000000E+00" nType="-99">
                            </Node>
                            <Node pos="r" depth="7" NCoef="0"     IVar="-1" Cut="     0.000000E+00" cType="1"     res="     4.443993E-01" rms="0.0e-00"     purity="0.00000000E+00" nType="-99">
                            </Node>
                        </Node>
                    </Node>
                    <Node pos="r" depth="5" NCoef="0"     IVar="6" Cut="    -4.339541E-01" cType="1"     res="     0.000000E+00" rms="0.0"     purity="0.00000000E+00" nType="0">
                        <Node pos="l" depth="6" NCoef="0"     IVar="1" Cut="     2.851479E-01" cType="1"     res="     0.000000E+00" rms="0.0"     purity="0.00000000E+00" nType="0">
                            <Node pos="l" depth="7" NCoef="0"     IVar="-1" Cut="     0.000000E+00" cType="1"     res="     3.719833E-01" rms="0.0e-00"     purity="0.00000000E+00" nType="-99">
                            </Node>
                            <Node pos="r" depth="7" NCoef="0"     IVar="-1" Cut="     0.000000E+00" cType="1"     res="     4.650034E-01" rms="0.0e-00"     purity="0.00000000E+00" nType="-99">
                            </Node>
                        </Node>
                        <Node pos="r" depth="6" NCoef="0"     IVar="2" Cut="     8.316746E-01" cType="1"     res="     0.000000E+00" rms="0.0"     purity="0.00000000E+00" nType="0">
                            <Node pos="l" depth="7" NCoef="0"     IVar="-1" Cut="     0.000000E+00" cType="1"     res="     4.880023E-01" rms="0.0e-00"     purity="0.00000000E+00" nType="-99">
                            </Node>
                            <Node pos="r" depth="7" NCoef="0"     IVar="-1" Cut="     0.000000E+00" cType="1"     res="     5.368748E-01" rms="0.0e-00"     purity="0.00000000E+00" nType="-99">
                            </Node>
                        </Node>
                    </Node>
                </Node>
                <Node pos="r" depth="4" NCoef="0"     IVar="6" Cut="    -3.142026E-01" cType="1"     res="     0.000000E+00" rms="0.0"     purity="0.00000000E+00" nType="0">
                    <Node pos="l" depth="5" NCoef="0"     IVar="0" Cut="    -6.474368E-01" cType="1"     res="     0.000000E+00" rms="0.0"     purity="0.00000000E+00" nType="0">
                        <Node pos="l" depth="6" NCoef="0"     IVar="6" Cut="    -7.083091E-01" cType="1"     res="     0.000000E+00" rms="0.0"     purity="0.00000000E+00" nType="0">
                            <Node pos="l" depth="7" NCoef="0"     IVar="-1" Cut="     0.000000E+00" cType="1"     res="     2.382575E-01" rms="0.0e-00"     purity="0.00000000E+00" nType="-99">
                            </Node>
                            <Node pos="r" depth="7" NCoef="0"     IVar="-1" Cut="     0.000000E+00" cType="1"     res="     3.961808E-01" rms="0.0e-00"     purity="0.00000000E+00" nType="-99">
                            </Node>
                        </Node>
                        <Node pos="r" depth="6" NCoef="0"     IVar="6" Cut="    -5.769108E-01" cType="1"     res="     0.000000E+00" rms="0.0"     purity="0.00000000E+00" nType="0">
                            <Node pos="l" depth="7" NCoef="0"     IVar="-1" Cut="     0.000000E+00" cType="1"     res="     5.126910E-01" rms="0.0e-00"     purity="0.00000000E+00" nType="-99">
                            </Node>
                            <Node pos="r" depth="7" NCoef="0"     IVar="-1" Cut="     0.000000E+00" cType="1"     res="     5.394409E-01" rms="0.0e-00"     purity="0.00000000E+00" nType="-99">
                            </Node>
                        </Node>
                    </Node>
                    <Node pos="r" depth="5" NCoef="0"     IVar="2" Cut="     6.260442E-01" cType="1"     res="     0.000000E+00" rms="0.0"     purity="0.00000000E+00" nType="0">
                        <Node pos="l" depth="6" NCoef="0"     IVar="0" Cut="    -6.474368E-01" cType="1"     res="     0.000000E+00" rms="0.0"     purity="0.00000000E+00" nType="0">
                            <Node pos="l" depth="7" NCoef="0"     IVar="-1" Cut="     0.000000E+00" cType="1"     res="     3.818093E-01" rms="0.0e-00"     purity="0.00000000E+00" nType="-99">
                            </Node>
                            <Node pos="r" depth="7" NCoef="0"     IVar="-1" Cut="     0.000000E+00" cType="1"     res="     5.341712E-01" rms="0.0e-00"     purity="0.00000000E+00" nType="-99">
                            </Node>
                        </Node>
                        <Node pos="r" depth="6" NCoef="0"     IVar="3" Cut="     5.914109E-01" cType="1"     res="     0.000000E+00" rms="0.0"     purity="0.00000000E+00" nType="0">
                            <Node pos="l" depth="7" NCoef="0"     IVar="-1" Cut="     0.000000E+00" cType="1"     res="     5.663420E-01" rms="0.0e-00"     purity="0.00000000E+00" nType="-99">
                            </Node>
                            <Node pos="r" depth="7" NCoef="0"     IVar="-1" Cut="     0.000000E+00" cType="1"     res="     5.879083E-01" rms="0.0e-00"     purity="0.00000000E+00" nType="-99">
                            </Node>
                        </Node>
                    </Node>
                </Node>
            </Node>
        </Node>
    </Node>
</BinaryTree>
<BinaryTree type="DecisionTree" boostWeight="0.0" itree="1">
    <Node pos="c" depth="1" NCoef="0"     IVar="1" Cut="    -3.608412E-01" cType="1"     res="     0.000000E+00" rms="0.0"     purity="0.00000000E+00" nType="0">
        <Node pos="l" depth="2" NCoef="0"     IVar="6" Cut="    -7.679144E-01" cType="1"     res="     0.000000E+00" rms="0.0"     purity="0.00000000E+00" nType="0">
            <Node pos="l" depth="3" NCoef="0"     IVar="1" Cut="    -7.252058E-01" cType="1"     res="     0.000000E+00" rms="0.0"     purity="0.00000000E+00" nType="0">
                <Node pos="l" depth="4" NCoef="0"     IVar="3" Cut="     4.170308E-01" cType="1"     res="     0.000000E+00" rms="0.0"     purity="0.00000000E+00" nType="0">
                    <Node pos="l" depth="5" NCoef="0"     IVar="6" Cut="    -9.593053E-01" cType="1"     res="     0.000000E+00" rms="0.0"     purity="0.00000000E+00" nType="0">
                        <Node pos="l" depth="6" NCoef="0"     IVar="2" Cut="     6.042202E-01" cType="1"     res="     0.000000E+00" rms="0.0"     purity="0.00000000E+00" nType="0">
                            <Node pos="l" depth="7" NCoef="0"     IVar="-1" Cut="     0.000000E+00" cType="1"     res="    -3.797773E-01" rms="0.0e-00"     purity="0.00000000E+00" nType="-99">
                            </Node>
                            <Node pos="r" depth="7" NCoef="0"     IVar="-1" Cut="     0.000000E+00" cType="1"     res="    -3.123709E-01" rms="0.0e-00"     purity="0.00000000E+00" nType="-99">
                            </Node>
                        </Node>
                        <Node pos="r" depth="6" NCoef="0"     IVar="3" Cut="     3.226658E-01" cType="1"     res="     0.000000E+00" rms="0.0"     purity="0.00000000E+00" nType="0">
                            <Node pos="l" depth="7" NCoef="0"     IVar="-1" Cut="     0.000000E+00" cType="1"     res="    -3.303861E-01" rms="0.0e-00"     purity="0.00000000E+00" nType="-99">
                            </Node>
                            <Node pos="r" depth="7" NCoef="0"     IVar="-1" Cut="     0.000000E+00" cType="1"     res="    -2.077116E-01" rms="0.0e-00"     purity="0.00000000E+00" nType="-99">
                            </Node>
                        </Node>
                    </Node>
                    <Node pos="r" depth="5" NCoef="0"     IVar="6" Cut="    -9.485911E-01" cType="1"     res="     0.000000E+00" rms="0.0"     purity="0.00000000E+00" nType="0">
                        <Node pos="l" depth="6" NCoef="0"     IVar="7" Cut="     9.798356E-01" cType="1"     res="     0.000000E+00" rms="0.0"     purity="0.00000000E+00" nType="0">
                            <Node pos="l" depth="7" NCoef="0"     IVar="-1" Cut="     0.000000E+00" cType="1"     res="    -2.601645E-01" rms="0.0e-00"     purity="0.00000000E+00" nType="-99">
                            </Node>
                            <Node pos="r" depth="7" NCoef="0"     IVar="-1" Cut="     0.000000E+00" cType="1"     res="    -1.212728E-01" rms="0.0e-00"     purity="0.00000000E+00" nType="-99">
                            </Node>
                        </Node>
                        <Node pos="r" depth="6" NCoef="0"     IVar="4" Cut="     2.242227E+00" cType="1"     res="     0.000000E+00" rms="0.0"     purity="0.00000000E+00" nType="0">
                            <Node pos="l" depth="7" NCoef="0"     IVar="-1" Cut="     0.000000E+00" cType="1"     res="    -3.755403E-02" rms="0.0e-00"     purity="0.00000000E+00" nType="-99">
                            </Node>
                            <Node pos="r" depth="7" NCoef="0"     IVar="-1" Cut="     0.000000E+00" cType="1"     res="    -5.007015E-01" rms="0.0e-00"     purity="0.00000000E+00" nType="-99">
                            </Node>
                        </Node>
                    </Node>
                </Node>
                <Node pos="r" depth="4" NCoef="0"     IVar="3" Cut="     3.793094E-01" cType="1"     res="     0.000000E+00" rms="0.0"     purity="0.00000000E+00" nType="0">
                    <Node pos="l" depth="5" NCoef="0"     IVar="7" Cut="     9.749212E-01" cType="1"     res="     0.000000E+00" rms="0.0"     purity="0.00000000E+00" nType="0">
                        <Node pos="l" depth="6" NCoef="0"     IVar="3" Cut="     3.134663E-01" cType="1"     res="     0.000000E+00" rms="0.0"     purity="0.00000000E+00" nType="0">
                            <Node pos="l" depth="7" NCoef="0"     IVar="-1" Cut="     0.000000E+00" cType="1"     res="    -3.246944E-01" rms="0.0e-00"     purity="0.00000000E+00" nType="-99">
                            </Node>
                            <Node pos="r" depth="7" NCoef="0"     IVar="-1" Cut="     0.000000E+00" cType="1"     res="    -2.111387E-01" rms="0.0e-00"     purity="0.00000000E+00" nType="-99">
                            </Node>
                        </Node>
                        <Node pos="r" depth="6" NCoef="0"     IVar="3" Cut="     3.311972E-01" cType="1"     res="     0.000000E+00" rms="0.0"     purity="0.00000000E+00" nType="0">
                            <Node pos="l" depth="7" NCoef="0"     IVar="-1" Cut="     0.000000E+00" cType="1"     res="    -1.725674E-01" rms="0.0e-00"     purity="0.00000000E+00" nType="-99">
                            </Node>
                            <Node pos="r" depth="7" NCoef="0"     IVar="-1" Cut="     0.000000E+00" cType="1"     res="    -4.111747E-02" rms="0.0e-00"     purity="0.00000000E+00" nType="-99">
                            </Node>
                        </Node>
                    </Node>
                    <Node pos="r" depth="5" NCoef="0"     IVar="6" Cut="    -9.789842E-01" cType="1"     res="     0.000000E+00" rms="0.0"     purity="0.00000000E+00" nType="0">
                        <Node pos="l" depth="6" NCoef="0"     IVar="2" Cut="     5.424365E-01" cType="1"     res="     0.000000E+00" rms="0.0"     purity="0.00000000E+00" nType="0">
                            <Node pos="l" depth="7" NCoef="0"     IVar="-1" Cut="     0.000000E+00" cType="1"     res="    -1.669638E-02" rms="0.0e-00"     purity="0.00000000E+00" nType="-99">
                            </Node>
                            <Node pos="r" depth="7" NCoef="0"     IVar="-1" Cut="     0.000000E+00" cType="1"     res="    -1.807368E-01" rms="0.0e-00"     purity="0.00000000E+00" nType="-99">
                            </Node>
                        </Node>
                        <Node pos="r" depth="6" NCoef="0"     IVar="6" Cut="    -9.293892E-01" cType="1"     res="     0.000000E+00" rms="0.0"     purity="0.00000000E+00" nType="0">
                            <Node pos="l" depth="7" NCoef="0"     IVar="-1" Cut="     0.000000E+00" cType="1"     res="     3.251003E-02" rms="0.0e-00"     purity="0.00000000E+00" nType="-99">
                            </Node>
                            <Node pos="r" depth="7" NCoef="0"     IVar="-1" Cut="     0.000000E+00" cType="1"     res="     1.514312E-01" rms="0.0e-00"     purity="0.00000000E+00" nType="-99">
                            </Node>
                        </Node>
                    </Node>
                </Node>
            </Node>
            <Node pos="r" depth="3" NCoef="0"     IVar="3" Cut="     3.441377E-01" cType="1"     res="     0.000000E+00" rms="0.0"     purity="0.00000000E+00" nType="0">
                <Node pos="l" depth="4" NCoef="0"     IVar="2" Cut="     6.478474E-01" cType="1"     res="     0.000000E+00" rms="0.0"     purity="0.00000000E+00" nType="0">
                    <Node pos="l" depth="5" NCoef="0"     IVar="7" Cut="     9.998548E-01" cType="1"     res="     0.000000E+00" rms="0.0"     purity="0.00000000E+00" nType="0">
                        <Node pos="l" depth="6" NCoef="0"     IVar="1" Cut="    -4.871406E-01" cType="1"     res="     0.000000E+00" rms="0.0"     purity="0.00000000E+00" nType="0">
                            <Node pos="l" depth="7" NCoef="0"     IVar="-1" Cut="     0.000000E+00" cType="1"     res="    -2.018801E-01" rms="0.0e-00"     purity="0.00000000E+00" nType="-99">
                            </Node>
                            <Node pos="r" depth="7" NCoef="0"     IVar="-1" Cut="     0.000000E+00" cType="1"     res="     1.926206E-02" rms="0.0e-00"     purity="0.00000000E+00" nType="-99">
                            </Node>
                        </Node>
                        <Node pos="r" depth="6" NCoef="0"     IVar="4" Cut="     1.355467E+00" cType="1"     res="     0.000000E+00" rms="0.0"     purity="0.00000000E+00" nType="0">
                            <Node pos="l" depth="7" NCoef="0"     IVar="-1" Cut="     0.000000E+00" cType="1"     res="     1.073624E-01" rms="0.0e-00"     purity="0.00000000E+00" nType="-99">
                            </Node>
                            <Node pos="r" depth="7" NCoef="0"     IVar="-1" Cut="     0.000000E+00" cType="1"     res="    -2.893415E-01" rms="0.0e-00"     purity="0.00000000E+00" nType="-99">
                            </Node>
                        </Node>
                    </Node>
                    <Node pos="r" depth="5" NCoef="0"     IVar="1" Cut="    -7.252058E-01" cType="1"     res="     0.000000E+00" rms="0.0"     purity="0.00000000E+00" nType="0">
                        <Node pos="l" depth="6" NCoef="0"     IVar="6" Cut="    -3.426003E-01" cType="1"     res="     0.000000E+00" rms="0.0"     purity="0.00000000E+00" nType="0">
                            <Node pos="l" depth="7" NCoef="0"     IVar="-1" Cut="     0.000000E+00" cType="1"     res="    -9.300470E-02" rms="0.0e-00"     purity="0.00000000E+00" nType="-99">
                            </Node>
                            <Node pos="r" depth="7" NCoef="0"     IVar="-1" Cut="     0.000000E+00" cType="1"     res="     1.478778E-01" rms="0.0e-00"     purity="0.00000000E+00" nType="-99">
                            </Node>
                        </Node>
                        <Node pos="r" depth="6" NCoef="0"     IVar="6" Cut="    -5.100899E-01" cType="1"     res="     0.000000E+00" rms="0.0"     purity="0.00000000E+00" nType="0">
                            <Node pos="l" depth="7" NCoef="0"     IVar="-1" Cut="     0.000000E+00" cType="1"     res="     1.039999E-01" rms="0.0e-00"     purity="0.00000000E+00" nType="-99">
                            </Node>
                            <Node pos="r" depth="7" NCoef="0"     IVar="-1" Cut="     0.000000E+00" cType="1"     res="     2.673719E-01" rms="0.0e-00"     purity="0.00000000E+00" nType="-99">
                            </Node>
                        </Node>
                    </Node>
                </Node>
                <Node pos="r" depth="4" NCoef="0"     IVar="6" Cut="    -5.533951E-01" cType="1"     res="     0.000000E+00" rms="0.0"     purity="0.00000000E+00" nType="0">
                    <Node pos="l" depth="5" NCoef="0"     IVar="1" Cut="    -7.252058E-01" cType="1"     res="     0.000000E+00" rms="0.0"     purity="0.00000000E+00" nType="0">
                        <Node pos="l" depth="6" NCoef="0"     IVar="8" Cut="     1.134638E-02" cType="1"     res="     0.000000E+00" rms="0.0"     purity="0.00000000E+00" nType="0">
                            <Node pos="l" depth="7" NCoef="0"     IVar="-1" Cut="     0.000000E+00" cType="1"     res="     1.354006E-01" rms="0.0e-00"     purity="0.00000000E+00" nType="-99">
                            </Node>
                            <Node pos="r" depth="7" NCoef="0"     IVar="-1" Cut="     0.000000E+00" cType="1"     res="    -3.349337E-02" rms="0.0e-00"     purity="0.00000000E+00" nType="-99">
                            </Node>
                        </Node>
                        <Node pos="r" depth="6" NCoef="0"     IVar="3" Cut="     4.247626E-01" cType="1"     res="     0.000000E+00" rms="0.0"     purity="0.00000000E+00" nType="0">
                            <Node pos="l" depth="7" NCoef="0"     IVar="-1" Cut="     0.000000E+00" cType="1"     res="     1.693621E-01" rms="0.0e-00"     purity="0.00000000E+00" nType="-99">
                            </Node>
                            <Node pos="r" depth="7" NCoef="0"     IVar="-1" Cut="     0.000000E+00" cType="1"     res="     2.932972E-01" rms="0.0e-00"     purity="0.00000000E+00" nType="-99">
                            </Node>
                        </Node>
                    </Node>
                    <Node pos="r" depth="5" NCoef="0"     IVar="2" Cut="     5.730706E-01" cType="1"     res="     0.000000E+00" rms="0.0"     purity="0.00000000E+00" nType="0">
                        <Node pos="l" depth="6" NCoef="0"     IVar="0" Cut="    -6.547697E-01" cType="1"     res="     0.000000E+00" rms="0.0"     purity="0.00000000E+00" nType="0">
                            <Node pos="l" depth="7" NCoef="0"     IVar="-1" Cut="     0.000000E+00" cType="1"     res="    -2.855011E-01" rms="0.0e-00"     purity="0.00000000E+00" nType="-99">
                            </Node>
                            <Node pos="r" depth="7" NCoef="0"     IVar="-1" Cut="     0.000000E+00" cType="1"     res="     2.599342E-01" rms="0.0e-00"     purity="0.00000000E+00" nType="-99">
                            </Node>
                        </Node>
                        <Node pos="r" depth="6" NCoef="0"     IVar="3" Cut="     5.534592E-01" cType="1"     res="     0.000000E+00" rms="0.0"     purity="0.00000000E+00" nType="0">
                            <Node pos="l" depth="7" NCoef="0"     IVar="-1" Cut="     0.000000E+00" cType="1"     res="     3.657497E-01" rms="0.0e-00"     purity="0.00000000E+00" nType="-99">
                            </Node>
                            <Node pos="r" depth="7" NCoef="0"     IVar="-1" Cut="     0.000000E+00" cType="1"     res="     4.411055E-01" rms="0.0e-00"     purity="0.00000000E+00" nType="-99">
                            </Node>
                        </Node>
                    </Node>
                </Node>
            </Node>
        </Node>
        <Node pos="r" depth="2" NCoef="0"     IVar="6" Cut="    -8.911486E-01" cType="1"     res="     0.000000E+00" rms="0.0"     purity="0.00000000E+00" nType="0">
            <Node pos="l" depth="3" NCoef="0"     IVar="1" Cut="     1.917762E-01" cType="1"     res="     0.000000E+00" rms="0.0"     purity="0.00000000E+00" nType="0">
                <Node pos="l" depth="4" NCoef="0"     IVar="3" Cut="     3.269207E-01" cType="1"     res="     0.000000E+00" rms="0.0"     purity="0.00000000E+00" nType="0">
                    <Node pos="l" depth="5" NCoef="0"     IVar="2" Cut="     5.621772E-01" cType="1"     res="     0.000000E+00" rms="0.0"     purity="0.00000000E+00" nType="0">
                        <Node pos="l" depth="6" NCoef="0"     IVar="1" Cut="    -1.150122E-01" cType="1"     res="     0.000000E+00" rms="0.0"     purity="0.00000000E+00" nType="0">
                            <Node pos="l" depth="7" NCoef="0"     IVar="-1" Cut="     0.000000E+00" cType="1"     res="    -2.526434E-01" rms="0.0e-00"     purity="0.00000000E+00" nType="-99">
                            </Node>
                            <Node pos="r" depth="7" NCoef="0"     IVar="-1" Cut="     0.000000E+00" cType="1"     res="    -8.758064E-02" rms="0.0e-00"     purity="0.00000000E+00" nType="-99">
                            </Node>
                        </Node>
                        <Node pos="r" depth="6" NCoef="0"     IVar="6" Cut="    -9.756410E-01" cType="1"     res="     0.000000E+00" rms="0.0"     purity="0.00000000E+00" nType="0">
                            <Node pos="l" depth="7" NCoef="0"     IVar="-1" Cut="     0.000000E+00" cType="1"     res="    -5.436875E-02" rms="0.0e-00"     purity="0.00000000E+00" nType="-99">
                            </Node>
                            <Node pos="r" depth="7" NCoef="0"     IVar="-1" Cut="     0.000000E+00" cType="1"     res="     6.124421E-02" rms="0.0e-00"     purity="0.00000000E+00" nType="-99">
                            </Node>
                        </Node>
                    </Node>
                    <Node pos="r" depth="5" NCoef="0"     IVar="3" Cut="     4.060454E-01" cType="1"     res="     0.000000E+00" rms="0.0"     purity="0.00000000E+00" nType="0">
                        <Node pos="l" depth="6" NCoef="0"     IVar="6" Cut="    -9.924228E-01" cType="1"     res="     0.000000E+00" rms="0.0"     purity="0.00000000E+00" nType="0">
                            <Node pos="l" depth="7" NCoef="0"     IVar="-1" Cut="     0.000000E+00" cType="1"     res="    -1.377055E-02" rms="0.0e-00"     purity="0.00000000E+00" nType="-99">
                            </Node>
                            <Node pos="r" depth="7" NCoef="0"     IVar="-1" Cut="     0.000000E+00" cType="1"     res="     1.241751E-01" rms="0.0e-00"     purity="0.00000000E+00" nType="-99">
                            </Node>
                        </Node>
                        <Node pos="r" depth="6" NCoef="0"     IVar="6" Cut="    -9.924228E-01" cType="1"     res="     0.000000E+00" rms="0.0"     purity="0.00000000E+00" nType="0">
                            <Node pos="l" depth="7" NCoef="0"     IVar="-1" Cut="     0.000000E+00" cType="1"     res="     1.272636E-01" rms="0.0e-00"     purity="0.00000000E+00" nType="-99">
                            </Node>
                            <Node pos="r" depth="7" NCoef="0"     IVar="-1" Cut="     0.000000E+00" cType="1"     res="     2.346391E-01" rms="0.0e-00"     purity="0.00000000E+00" nType="-99">
                            </Node>
                        </Node>
                    </Node>
                </Node>
                <Node pos="r" depth="4" NCoef="0"     IVar="2" Cut="     4.719803E-01" cType="1"     res="     0.000000E+00" rms="0.0"     purity="0.00000000E+00" nType="0">
                    <Node pos="l" depth="5" NCoef="0"     IVar="0" Cut="     4.952119E-02" cType="1"     res="     0.000000E+00" rms="0.0"     purity="0.00000000E+00" nType="0">
                        <Node pos="l" depth="6" NCoef="0"     IVar="0" Cut="    -6.547697E-01" cType="1"     res="     0.000000E+00" rms="0.0"     purity="0.00000000E+00" nType="0">
                            <Node pos="l" depth="7" NCoef="0"     IVar="-1" Cut="     0.000000E+00" cType="1"     res="    -1.981492E-01" rms="0.0e-00"     purity="0.00000000E+00" nType="-99">
                            </Node>
                            <Node pos="r" depth="7" NCoef="0"     IVar="-1" Cut="     0.000000E+00" cType="1"     res="     4.895028E-02" rms="0.0e-00"     purity="0.00000000E+00" nType="-99">
                            </Node>
                        </Node>
                        <Node pos="r" depth="6" NCoef="0"     IVar="3" Cut="     3.441377E-01" cType="1"     res="     0.000000E+00" rms="0.0"     purity="0.00000000E+00" nType="0">
                            <Node pos="l" depth="7" NCoef="0"     IVar="-1" Cut="     0.000000E+00" cType="1"     res="     1.614471E-01" rms="0.0e-00"     purity="0.00000000E+00" nType="-99">
                            </Node>
                            <Node pos="r" depth="7" NCoef="0"     IVar="-1" Cut="     0.000000E+00" cType="1"     res="     2.533180E-01" rms="0.0e-00"     purity="0.00000000E+00" nType="-99">
                            </Node>
                        </Node>
                    </Node>
                    <Node pos="r" depth="5" NCoef="0"     IVar="0" Cut="    -4.190813E-01" cType="1"     res="     0.000000E+00" rms="0.0"     purity="0.00000000E+00" nType="0">
                        <Node pos="l" depth="6" NCoef="0"     IVar="8" Cut="     1.498285E-02" cType="1"     res="     0.000000E+00" rms="0.0"     purity="0.00000000E+00" nType="0">
                            <Node pos="l" depth="7" NCoef="0"     IVar="-1" Cut="     0.000000E+00" cType="1"     res="     1.708736E-01" rms="0.0e-00"     purity="0.00000000E+00" nType="-99">
                            </Node>
                            <Node pos="r" depth="7" NCoef="0"     IVar="-1" Cut="     0.000000E+00" cType="1"     res="     3.518652E-02" rms="0.0e-00"     purity="0.00000000E+00" nType="-99">
                            </Node>
                        </Node>
                        <Node pos="r" depth="6" NCoef="0"     IVar="1" Cut="     7.199777E-01" cType="1"     res="     0.000000E+00" rms="0.0"     purity="0.00000000E+00" nType="0">
                            <Node pos="l" depth="7" NCoef="0"     IVar="-1" Cut="     0.000000E+00" cType="1"     res="     2.618348E-01" rms="0.0e-00"     purity="0.00000000E+00" nType="-99">
                            </Node>
                            <Node pos="r" depth="7" NCoef="0"     IVar="-1" Cut="     0.000000E+00" cType="1"     res="     3.284055E-01" rms="0.0e-00"     purity="0.00000000E+00" nType="-99">
                            </Node>
                        </Node>
                    </Node>
                </Node>
            </Node>
            <Node pos="r" depth="3" NCoef="0"     IVar="3" Cut="     3.756676E-01" cType="1"     res="     0.000000E+00" rms="0.0"     purity="0.00000000E+00" nType="0">
                <Node pos="l" depth="4" NCoef="0"     IVar="2" Cut="     6.238752E-01" cType="1"     res="     0.000000E+00" rms="0.0"     purity="0.00000000E+00" nType="0">
                    <Node pos="l" depth="5" NCoef="0"     IVar="1" Cut="     5.031602E-01" cType="1"     res="     0.000000E+00" rms="0.0"     purity="0.00000000E+00" nType="0">
                        <Node pos="l" depth="6" NCoef="0"     IVar="3" Cut="     3.033837E-01" cType="1"     res="     0.000000E+00" rms="0.0"     purity="0.00000000E+00" nType="0">
                            <Node pos="l" depth="7" NCoef="0"     IVar="-1" Cut="     0.000000E+00" cType="1"     res="     1.100703E-01" rms="0.0e-00"     purity="0.00000000E+00" nType="-99">
                            </Node>
                            <Node pos="r" depth="7" NCoef="0"     IVar="-1" Cut="     0.000000E+00" cType="1"     res="     2.391374E-01" rms="0.0e-00"     purity="0.00000000E+00" nType="-99">
                            </Node>
                        </Node>
                        <Node pos="r" depth="6" NCoef="0"     IVar="0" Cut="    -4.190813E-01" cType="1"     res="     0.000000E+00" rms="0.0"     purity="0.00000000E+00" nType="0">
                            <Node pos="l" depth="7" NCoef="0"     IVar="-1" Cut="     0.000000E+00" cType="1"     res="     1.142320E-01" rms="0.0e-00"     purity="0.00000000E+00" nType="-99">
                            </Node>
                            <Node pos="r" depth="7" NCoef="0"     IVar="-1" Cut="     0.000000E+00" cType="1"     res="     3.082795E-01" rms="0.0e-00"     purity="0.00000000E+00" nType="-99">
                            </Node>
                        </Node>
                    </Node>
                    <Node pos="r" depth="5" NCoef="0"     IVar="6" Cut="    -5.533951E-01" cType="1"     res="     0.000000E+00" rms="0.0"     purity="0.00000000E+00" nType="0">
                        <Node pos="l" depth="6" NCoef="0"     IVar="1" Cut="     1.917762E-01" cType="1"     res="     0.000000E+00" rms="0.0"     purity="0.00000000E+00" nType="0">
                            <Node pos="l" depth="7" NCoef="0"     IVar="-1" Cut="     0.000000E+00" cType="1"     res="     2.248714E-01" rms="0.0e-00"     purity="0.00000000E+00" nType="-99">
                            </Node>
                            <Node pos="r" depth="7" NCoef="0"     IVar="-1" Cut="     0.000000E+00" cType="1"     res="     3.327405E-01" rms="0.0e-00"     purity="0.00000000E+00" nType="-99">
                            </Node>
                        </Node>
                        <Node pos="r" depth="6" NCoef="0"     IVar="2" Cut="     1.279962E+00" cType="1"     res="     0.000000E+00" rms="0.0"     purity="0.00000000E+00" nType="0">
                            <Node pos="l" depth="7" NCoef="0"     IVar="-1" Cut="     0.000000E+00" cType="1"     res="     3.778425E-01" rms="0.0e-00"     purity="0.00000000E+00" nType="-99">
                            </Node>
                            <Node pos="r" depth="7" NCoef="0"     IVar="-1" Cut="     0.000000E+00" cType="1"     res="     4.234572E-01" rms="0.0e-00"     purity="0.00000000E+00" nType="-99">
                            </Node>
                        </Node>
                    </Node>
                </Node>
                <Node pos="r" depth="4" NCoef="0"     IVar="6" Cut="    -5.100899E-01" cType="1"     res="     0.000000E+00" rms="0.0"     purity="0.00000000E+00" nType="0">
                    <Node pos="l" depth="5" NCoef="0"     IVar="0" Cut="    -4.190813E-01" cType="1"     res="     0.000000E+00" rms="0.0"     purity="0.00000000E+00" nType="0">
                        <Node pos="l" depth="6" NCoef="0"     IVar="2" Cut="     4.921135E-01" cType="1"     res="     0.000000E+00" rms="0.0"     purity="0.00000000E+00" nType="0">
                            <Node pos="l" depth="7" NCoef="0"     IVar="-1" Cut="     0.000000E+00" cType="1"     res="     6.613573E-02" rms="0.0e-00"     purity="0.00000000E+00" nType="-99">
                            </Node>
                            <Node pos="r" depth="7" NCoef="0"     IVar="-1" Cut="     0.000000E+00" cType="1"     res="     2.450776E-01" rms="0.0e-00"     purity="0.00000000E+00" nType="-99">
                            </Node>
                        </Node>
                        <Node pos="r" depth="6" NCoef="0"     IVar="1" Cut="     1.917762E-01" cType="1"     res="     0.000000E+00" rms="0.0"     purity="0.00000000E+00" nType="0">
                            <Node pos="l" depth="7" NCoef="0"     IVar="-1" Cut="     0.000000E+00" cType="1"     res="     3.251693E-01" rms="0.0e-00"     purity="0.00000000E+00" nType="-99">
                            </Node>
                            <Node pos="r" depth="7" NCoef="0"     IVar="-1" Cut="     0.000000E+00" cType="1"     res="     3.861391E-01" rms="0.0e-00"     purity="0.00000000E+00" nType="-99">
                            </Node>
                        </Node>
                    </Node>
                    <Node pos="r" depth="5" NCoef="0"     IVar="3" Cut="     4.993242E-01" cType="1"     res="     0.000000E+00" rms="0.0"     purity="0.00000000E+00" nType="0">
                        <Node pos="l" depth="6" NCoef="0"     IVar="2" Cut="     6.042202E-01" cType="1"     res="     0.000000E+00" rms="0.0"     purity="0.00000000E+00" nType="0">
                            <Node pos="l" depth="7" NCoef="0"     IVar="-1" Cut="     0.000000E+00" cType="1"     res="     3.835163E-01" rms="0.0e-00"     purity="0.00000000E+00" nType="-99">
                            </Node>
                            <Node pos="r" depth="7" NCoef="0"     IVar="-1" Cut="     0.000000E+00" cType="1"     res="     4.215636E-01" rms="0.0e-00"     purity="0.00000000E+00" nType="-99">
                            </Node>
                        </Node>
                        <Node pos="r" depth="6" NCoef="0"     IVar="2" Cut="     8.066112E-01" cType="1"     res="     0.000000E+00" rms="0.0"     purity="0.00000000E+00" nType="0">
                            <Node pos="l" depth="7" NCoef="0"     IVar="-1" Cut="     0.000000E+00" cType="1"     res="     4.318343E-01" rms="0.0e-00"     purity="0.00000000E+00" nType="-99">
                            </Node>
                            <Node pos="r" depth="7" NCoef="0"     IVar="-1" Cut="     0.000000E+00" cType="1"     res="     4.540618E-01" rms="0.0e-00"     purity="0.00000000E+00" nType="-99">
                            </Node>
                        </Node>
                    </Node>
                </Node>
            </Node>
        </Node>
    </Node>
</BinaryTree>
<BinaryTree type="DecisionTree" boostWeight="0.0" itree="2">
    <Node pos="c" depth="1" NCoef="0"     IVar="1" Cut="    -1.538835E-01" cType="1"     res="     0.000000E+00" rms="0.0"     purity="0.00000000E+00" nType="0">
        <Node pos="l" depth="2" NCoef="0"     IVar="6" Cut="    -8.415510E-01" cType="1"     res="     0.000000E+00" rms="0.0"     purity="0.00000000E+00" nType="0">
            <Node pos="l" depth="3" NCoef="0"     IVar="1" Cut="    -5.098763E-01" cType="1"     res="     0.000000E+00" rms="0.0"     purity="0.00000000E+00" nType="0">
                <Node pos="l" depth="4" NCoef="0"     IVar="3" Cut="     3.665605E-01" cType="1"     res="     0.000000E+00" rms="0.0"     purity="0.00000000E+00" nType="0">
                    <Node pos="l" depth="5" NCoef="0"     IVar="7" Cut="     9.911116E-01" cType="1"     res="     0.000000E+00" rms="0.0"     purity="0.00000000E+00" nType="0">
                        <Node pos="l" depth="6" NCoef="0"     IVar="1" Cut="    -8.239818E-01" cType="1"     res="     0.000000E+00" rms="0.0"     purity="0.00000000E+00" nType="0">
                            <Node pos="l" depth="7" NCoef="0"     IVar="-1" Cut="     0.000000E+00" cType="1"     res="    -3.438186E-01" rms="0.0e-00"     purity="0.00000000E+00" nType="-99">
                            </Node>
                            <Node pos="r" depth="7" NCoef="0"     IVar="-1" Cut="     0.000000E+00" cType="1"     res="    -2.609129E-01" rms="0.0e-00"     purity="0.00000000E+00" nType="-99">
                            </Node>
                        </Node>
                        <Node pos="r" depth="6" NCoef="0"     IVar="1" Cut="    -8.239818E-01" cType="1"     res="     0.000000E+00" rms="0.0"     purity="0.00000000E+00" nType="0">
                            <Node pos="l" depth="7" NCoef="0"     IVar="-1" Cut="     0.000000E+00" cType="1"     res="    -2.800844E-01" rms="0.0e-00"     purity="0.00000000E+00" nType="-99">
                            </Node>
                            <Node pos="r" depth="7" NCoef="0"     IVar="-1" Cut="     0.000000E+00" cType="1"     res="    -1.405076E-01" rms="0.0e-00"     purity="0.00000000E+00" nType="-99">
                            </Node>
                        </Node>
                    </Node>
                    <Node pos="r" depth="5" NCoef="0"     IVar="1" Cut="    -8.239818E-01" cType="1"     res="     0.000000E+00" rms="0.0"     purity="0.00000000E+00" nType="0">
                        <Node pos="l" depth="6" NCoef="0"     IVar="3" Cut="     4.526435E-01" cType="1"     res="     0.000000E+00" rms="0.0"     purity="0.00000000E+00" nType="0">
                            <Node pos="l" depth="7" NCoef="0"     IVar="-1" Cut="     0.000000E+00" cType="1"     res="    -2.478340E-01" rms="0.0e-00"     purity="0.00000000E+00" nType="-99">
                            </Node>
                            <Node pos="r" depth="7" NCoef="0"     IVar="-1" Cut="     0.000000E+00" cType="1"     res="    -1.342711E-01" rms="0.0e-00"     purity="0.00000000E+00" nType="-99">
                            </Node>
                        </Node>
                        <Node pos="r" depth="6" NCoef="0"     IVar="6" Cut="    -9.942664E-01" cType="1"     res="     0.000000E+00" rms="0.0"     purity="0.00000000E+00" nType="0">
                            <Node pos="l" depth="7" NCoef="0"     IVar="-1" Cut="     0.000000E+00" cType="1"     res="    -1.695346E-01" rms="0.0e-00"     purity="0.00000000E+00" nType="-99">
                            </Node>
                            <Node pos="r" depth="7" NCoef="0"     IVar="-1" Cut="     0.000000E+00" cType="1"     res="    -3.995381E-02" rms="0.0e-00"     purity="0.00000000E+00" nType="-99">
                            </Node>
                        </Node>
                    </Node>
                </Node>
                <Node pos="r" depth="4" NCoef="0"     IVar="3" Cut="     3.665605E-01" cType="1"     res="     0.000000E+00" rms="0.0"     purity="0.00000000E+00" nType="0">
                    <Node pos="l" depth="5" NCoef="0"     IVar="7" Cut="     9.581031E-01" cType="1"     res="     0.000000E+00" rms="0.0"     purity="0.00000000E+00" nType="0">
                        <Node pos="l" depth="6" NCoef="0"     IVar="6" Cut="    -9.898540E-01" cType="1"     res="     0.000000E+00" rms="0.0"     purity="0.00000000E+00" nType="0">
                            <Node pos="l" depth="7" NCoef="0"     IVar="-1" Cut="     0.000000E+00" cType="1"     res="    -2.230764E-01" rms="0.0e-00"     purity="0.00000000E+00" nType="-99">
                            </Node>
                            <Node pos="r" depth="7" NCoef="0"     IVar="-1" Cut="     0.000000E+00" cType="1"     res="    -8.762458E-02" rms="0.0e-00"     purity="0.00000000E+00" nType="-99">
                            </Node>
                        </Node>
                        <Node pos="r" depth="6" NCoef="0"     IVar="6" Cut="    -9.624149E-01" cType="1"     res="     0.000000E+00" rms="0.0"     purity="0.00000000E+00" nType="0">
                            <Node pos="l" depth="7" NCoef="0"     IVar="-1" Cut="     0.000000E+00" cType="1"     res="    -6.214356E-02" rms="0.0e-00"     purity="0.00000000E+00" nType="-99">
                            </Node>
                            <Node pos="r" depth="7" NCoef="0"     IVar="-1" Cut="     0.000000E+00" cType="1"     res="     4.121130E-02" rms="0.0e-00"     purity="0.00000000E+00" nType="-99">
                            </Node>
                        </Node>
                    </Node>
                    <Node pos="r" depth="5" NCoef="0"     IVar="6" Cut="    -9.929228E-01" cType="1"     res="     0.000000E+00" rms="0.0"     purity="0.00000000E+00" nType="0">
                        <Node pos="l" depth="6" NCoef="0"     IVar="3" Cut="     4.410427E-01" cType="1"     res="     0.000000E+00" rms="0.0"     purity="0.00000000E+00" nType="0">
                            <Node pos="l" depth="7" NCoef="0"     IVar="-1" Cut="     0.000000E+00" cType="1"     res="    -7.969704E-02" rms="0.0e-00"     purity="0.00000000E+00" nType="-99">
                            </Node>
                            <Node pos="r" depth="7" NCoef="0"     IVar="-1" Cut="     0.000000E+00" cType="1"     res="     5.757631E-02" rms="0.0e-00"     purity="0.00000000E+00" nType="-99">
                            </Node>
                        </Node>
                        <Node pos="r" depth="6" NCoef="0"     IVar="3" Cut="     4.571565E-01" cType="1"     res="     0.000000E+00" rms="0.0"     purity="0.00000000E+00" nType="0">
                            <Node pos="l" depth="7" NCoef="0"     IVar="-1" Cut="     0.000000E+00" cType="1"     res="     7.655115E-02" rms="0.0e-00"     purity="0.00000000E+00" nType="-99">
                            </Node>
                            <Node pos="r" depth="7" NCoef="0"     IVar="-1" Cut="     0.000000E+00" cType="1"     res="     1.982474E-01" rms="0.0e-00"     purity="0.00000000E+00" nType="-99">
                            </Node>
                        </Node>
                    </Node>
                </Node>
            </Node>
            <Node pos="r" depth="3" NCoef="0"     IVar="3" Cut="     3.464238E-01" cType="1"     res="     0.000000E+00" rms="0.0"     purity="0.00000000E+00" nType="0">
                <Node pos="l" depth="4" NCoef="0"     IVar="1" Cut="    -6.178441E-01" cType="1"     res="     0.000000E+00" rms="0.0"     purity="0.00000000E+00" nType="0">
                    <Node pos="l" depth="5" NCoef="0"     IVar="2" Cut="     5.539256E-01" cType="1"     res="     0.000000E+00" rms="0.0"     purity="0.00000000E+00" nType="0">
                        <Node pos="l" depth="6" NCoef="0"     IVar="6" Cut="    -5.860122E-01" cType="1"     res="     0.000000E+00" rms="0.0"     purity="0.00000000E+00" nType="0">
                            <Node pos="l" depth="7" NCoef="0"     IVar="-1" Cut="     0.000000E+00" cType="1"     res="    -2.933304E-01" rms="0.0e-00"     purity="0.00000000E+00" nType="-99">
                            </Node>
                            <Node pos="r" depth="7" NCoef="0"     IVar="-1" Cut="     0.000000E+00" cType="1"     res="    -1.118478E-01" rms="0.0e-00"     purity="0.00000000E+00" nType="-99">
                            </Node>
                        </Node>
                        <Node pos="r" depth="6" NCoef="0"     IVar="6" Cut="    -6.894298E-01" cType="1"     res="     0.000000E+00" rms="0.0"     purity="0.00000000E+00" nType="0">
                            <Node pos="l" depth="7" NCoef="0"     IVar="-1" Cut="     0.000000E+00" cType="1"     res="    -1.197890E-01" rms="0.0e-00"     purity="0.00000000E+00" nType="-99">
                            </Node>
                            <Node pos="r" depth="7" NCoef="0"     IVar="-1" Cut="     0.000000E+00" cType="1"     res="     5.908057E-02" rms="0.0e-00"     purity="0.00000000E+00" nType="-99">
                            </Node>
                        </Node>
                    </Node>
                    <Node pos="r" depth="5" NCoef="0"     IVar="2" Cut="     7.931657E-01" cType="1"     res="     0.000000E+00" rms="0.0"     purity="0.00000000E+00" nType="0">
                        <Node pos="l" depth="6" NCoef="0"     IVar="4" Cut="     1.727743E+00" cType="1"     res="     0.000000E+00" rms="0.0"     purity="0.00000000E+00" nType="0">
                            <Node pos="l" depth="7" NCoef="0"     IVar="-1" Cut="     0.000000E+00" cType="1"     res="     5.495535E-02" rms="0.0e-00"     purity="0.00000000E+00" nType="-99">
                            </Node>
                            <Node pos="r" depth="7" NCoef="0"     IVar="-1" Cut="     0.000000E+00" cType="1"     res="    -1.947835E-01" rms="0.0e-00"     purity="0.00000000E+00" nType="-99">
                            </Node>
                        </Node>
                        <Node pos="r" depth="6" NCoef="0"     IVar="6" Cut="    -6.612886E-01" cType="1"     res="     0.000000E+00" rms="0.0"     purity="0.00000000E+00" nType="0">
                            <Node pos="l" depth="7" NCoef="0"     IVar="-1" Cut="     0.000000E+00" cType="1"     res="     8.307970E-02" rms="0.0e-00"     purity="0.00000000E+00" nType="-99">
                            </Node>
                            <Node pos="r" depth="7" NCoef="0"     IVar="-1" Cut="     0.000000E+00" cType="1"     res="     2.400986E-01" rms="0.0e-00"     purity="0.00000000E+00" nType="-99">
                            </Node>
                        </Node>
                    </Node>
                </Node>
                <Node pos="r" depth="4" NCoef="0"     IVar="6" Cut="    -5.388700E-01" cType="1"     res="     0.000000E+00" rms="0.0"     purity="0.00000000E+00" nType="0">
                    <Node pos="l" depth="5" NCoef="0"     IVar="1" Cut="    -6.178441E-01" cType="1"     res="     0.000000E+00" rms="0.0"     purity="0.00000000E+00" nType="0">
                        <Node pos="l" depth="6" NCoef="0"     IVar="1" Cut="    -8.239818E-01" cType="1"     res="     0.000000E+00" rms="0.0"     purity="0.00000000E+00" nType="0">
                            <Node pos="l" depth="7" NCoef="0"     IVar="-1" Cut="     0.000000E+00" cType="1"     res="    -4.270519E-02" rms="0.0e-00"     purity="0.00000000E+00" nType="-99">
                            </Node>
                            <Node pos="r" depth="7" NCoef="0"     IVar="-1" Cut="     0.000000E+00" cType="1"     res="     8.846676E-02" rms="0.0e-00"     purity="0.00000000E+00" nType="-99">
                            </Node>
                        </Node>
                        <Node pos="r" depth="6" NCoef="0"     IVar="3" Cut="     4.526435E-01" cType="1"     res="     0.000000E+00" rms="0.0"     purity="0.00000000E+00" nType="0">
                            <Node pos="l" depth="7" NCoef="0"     IVar="-1" Cut="     0.000000E+00" cType="1"     res="     1.832100E-01" rms="0.0e-00"     purity="0.00000000E+00" nType="-99">
                            </Node>
                            <Node pos="r" depth="7" NCoef="0"     IVar="-1" Cut="     0.000000E+00" cType="1"     res="     2.637463E-01" rms="0.0e-00"     purity="0.00000000E+00" nType="-99">
                            </Node>
                        </Node>
                    </Node>
                    <Node pos="r" depth="5" NCoef="0"     IVar="2" Cut="     6.516512E-01" cType="1"     res="     0.000000E+00" rms="0.0"     purity="0.00000000E+00" nType="0">
                        <Node pos="l" depth="6" NCoef="0"     IVar="1" Cut="    -8.239818E-01" cType="1"     res="     0.000000E+00" rms="0.0"     purity="0.00000000E+00" nType="0">
                            <Node pos="l" depth="7" NCoef="0"     IVar="-1" Cut="     0.000000E+00" cType="1"     res="    -5.882532E-02" rms="0.0e-00"     purity="0.00000000E+00" nType="-99">
                            </Node>
                            <Node pos="r" depth="7" NCoef="0"     IVar="-1" Cut="     0.000000E+00" cType="1"     res="     2.719888E-01" rms="0.0e-00"     purity="0.00000000E+00" nType="-99">
                            </Node>
                        </Node>
                        <Node pos="r" depth="6" NCoef="0"     IVar="3" Cut="     4.959798E-01" cType="1"     res="     0.000000E+00" rms="0.0"     purity="0.00000000E+00" nType="0">
                            <Node pos="l" depth="7" NCoef="0"     IVar="-1" Cut="     0.000000E+00" cType="1"     res="     3.094081E-01" rms="0.0e-00"     purity="0.00000000E+00" nType="-99">
                            </Node>
                            <Node pos="r" depth="7" NCoef="0"     IVar="-1" Cut="     0.000000E+00" cType="1"     res="     3.758224E-01" rms="0.0e-00"     purity="0.00000000E+00" nType="-99">
                            </Node>
                        </Node>
                    </Node>
                </Node>
            </Node>
        </Node>
        <Node pos="r" depth="2" NCoef="0"     IVar="6" Cut="    -7.658960E-01" cType="1"     res="     0.000000E+00" rms="0.0"     purity="0.00000000E+00" nType="0">
            <Node pos="l" depth="3" NCoef="0"     IVar="2" Cut="     4.295858E-01" cType="1"     res="     0.000000E+00" rms="0.0"     purity="0.00000000E+00" nType="0">
                <Node pos="l" depth="4" NCoef="0"     IVar="0" Cut="    -2.376515E-01" cType="1"     res="     0.000000E+00" rms="0.0"     purity="0.00000000E+00" nType="0">
                    <Node pos="l" depth="5" NCoef="0"     IVar="0" Cut="    -6.609997E-01" cType="1"     res="     0.000000E+00" rms="0.0"     purity="0.00000000E+00" nType="0">
                        <Node pos="l" depth="6" NCoef="0"     IVar="5" Cut="     9.606494E-01" cType="1"     res="     0.000000E+00" rms="0.0"     purity="0.00000000E+00" nType="0">
                            <Node pos="l" depth="7" NCoef="0"     IVar="-1" Cut="     0.000000E+00" cType="1"     res="    -2.147138E-01" rms="0.0e-00"     purity="0.00000000E+00" nType="-99">
                            </Node>
                            <Node pos="r" depth="7" NCoef="0"     IVar="-1" Cut="     0.000000E+00" cType="1"     res="    -4.633226E-01" rms="0.0e-00"     purity="0.00000000E+00" nType="-99">
                            </Node>
                        </Node>
                        <Node pos="r" depth="6" NCoef="0"     IVar="1" Cut="     4.835143E-01" cType="1"     res="     0.000000E+00" rms="0.0"     purity="0.00000000E+00" nType="0">
                            <Node pos="l" depth="7" NCoef="0"     IVar="-1" Cut="     0.000000E+00" cType="1"     res="    -2.271765E-01" rms="0.0e-00"     purity="0.00000000E+00" nType="-99">
                            </Node>
                            <Node pos="r" depth="7" NCoef="0"     IVar="-1" Cut="     0.000000E+00" cType="1"     res="    -2.491413E-02" rms="0.0e-00"     purity="0.00000000E+00" nType="-99">
                            </Node>
                        </Node>
                    </Node>
                    <Node pos="r" depth="5" NCoef="0"     IVar="1" Cut="     6.642349E-01" cType="1"     res="     0.000000E+00" rms="0.0"     purity="0.00000000E+00" nType="0">
                        <Node pos="l" depth="6" NCoef="0"     IVar="3" Cut="     2.972298E-01" cType="1"     res="     0.000000E+00" rms="0.0"     purity="0.00000000E+00" nType="0">
                            <Node pos="l" depth="7" NCoef="0"     IVar="-1" Cut="     0.000000E+00" cType="1"     res="    -9.169833E-02" rms="0.0e-00"     purity="0.00000000E+00" nType="-99">
                            </Node>
                            <Node pos="r" depth="7" NCoef="0"     IVar="-1" Cut="     0.000000E+00" cType="1"     res="     7.261021E-02" rms="0.0e-00"     purity="0.00000000E+00" nType="-99">
                            </Node>
                        </Node>
                        <Node pos="r" depth="6" NCoef="0"     IVar="6" Cut="    -9.856440E-01" cType="1"     res="     0.000000E+00" rms="0.0"     purity="0.00000000E+00" nType="0">
                            <Node pos="l" depth="7" NCoef="0"     IVar="-1" Cut="     0.000000E+00" cType="1"     res="     1.024103E-01" rms="0.0e-00"     purity="0.00000000E+00" nType="-99">
                            </Node>
                            <Node pos="r" depth="7" NCoef="0"     IVar="-1" Cut="     0.000000E+00" cType="1"     res="     1.874133E-01" rms="0.0e-00"     purity="0.00000000E+00" nType="-99">
                            </Node>
                        </Node>
                    </Node>
                </Node>
                <Node pos="r" depth="4" NCoef="0"     IVar="1" Cut="     5.688963E-01" cType="1"     res="     0.000000E+00" rms="0.0"     purity="0.00000000E+00" nType="0">
                    <Node pos="l" depth="5" NCoef="0"     IVar="3" Cut="     3.215043E-01" cType="1"     res="     0.000000E+00" rms="0.0"     purity="0.00000000E+00" nType="0">
                        <Node pos="l" depth="6" NCoef="0"     IVar="6" Cut="    -9.525781E-01" cType="1"     res="     0.000000E+00" rms="0.0"     purity="0.00000000E+00" nType="0">
                            <Node pos="l" depth="7" NCoef="0"     IVar="-1" Cut="     0.000000E+00" cType="1"     res="     7.969258E-03" rms="0.0e-00"     purity="0.00000000E+00" nType="-99">
                            </Node>
                            <Node pos="r" depth="7" NCoef="0"     IVar="-1" Cut="     0.000000E+00" cType="1"     res="     1.167265E-01" rms="0.0e-00"     purity="0.00000000E+00" nType="-99">
                            </Node>
                        </Node>
                        <Node pos="r" depth="6" NCoef="0"     IVar="6" Cut="    -9.777664E-01" cType="1"     res="     0.000000E+00" rms="0.0"     purity="0.00000000E+00" nType="0">
                            <Node pos="l" depth="7" NCoef="0"     IVar="-1" Cut="     0.000000E+00" cType="1"     res="     1.348691E-01" rms="0.0e-00"     purity="0.00000000E+00" nType="-99">
                            </Node>
                            <Node pos="r" depth="7" NCoef="0"     IVar="-1" Cut="     0.000000E+00" cType="1"     res="     2.331364E-01" rms="0.0e-00"     purity="0.00000000E+00" nType="-99">
                            </Node>
                        </Node>
                    </Node>
                    <Node pos="r" depth="5" NCoef="0"     IVar="0" Cut="    -2.376515E-01" cType="1"     res="     0.000000E+00" rms="0.0"     purity="0.00000000E+00" nType="0">
                        <Node pos="l" depth="6" NCoef="0"     IVar="0" Cut="    -6.609997E-01" cType="1"     res="     0.000000E+00" rms="0.0"     purity="0.00000000E+00" nType="0">
                            <Node pos="l" depth="7" NCoef="0"     IVar="-1" Cut="     0.000000E+00" cType="1"     res="     2.940099E-02" rms="0.0e-00"     purity="0.00000000E+00" nType="-99">
                            </Node>
                            <Node pos="r" depth="7" NCoef="0"     IVar="-1" Cut="     0.000000E+00" cType="1"     res="     1.498185E-01" rms="0.0e-00"     purity="0.00000000E+00" nType="-99">
                            </Node>
                        </Node>
                        <Node pos="r" depth="6" NCoef="0"     IVar="3" Cut="     3.164210E-01" cType="1"     res="     0.000000E+00" rms="0.0"     purity="0.00000000E+00" nType="0">
                            <Node pos="l" depth="7" NCoef="0"     IVar="-1" Cut="     0.000000E+00" cType="1"     res="     1.988487E-01" rms="0.0e-00"     purity="0.00000000E+00" nType="-99">
                            </Node>
                            <Node pos="r" depth="7" NCoef="0"     IVar="-1" Cut="     0.000000E+00" cType="1"     res="     2.687013E-01" rms="0.0e-00"     purity="0.00000000E+00" nType="-99">
                            </Node>
                        </Node>
                    </Node>
                </Node>
            </Node>
            <Node pos="r" depth="3" NCoef="0"     IVar="3" Cut="     4.266295E-01" cType="1"     res="     0.000000E+00" rms="0.0"     purity="0.00000000E+00" nType="0">
                <Node pos="l" depth="4" NCoef="0"     IVar="2" Cut="     5.446262E-01" cType="1"     res="     0.000000E+00" rms="0.0"     purity="0.00000000E+00" nType="0">
                    <Node pos="l" depth="5" NCoef="0"     IVar="3" Cut="     3.123558E-01" cType="1"     res="     0.000000E+00" rms="0.0"     purity="0.00000000E+00" nType="0">
                        <Node pos="l" depth="6" NCoef="0"     IVar="0" Cut="    -8.354287E-02" cType="1"     res="     0.000000E+00" rms="0.0"     purity="0.00000000E+00" nType="0">
                            <Node pos="l" depth="7" NCoef="0"     IVar="-1" Cut="     0.000000E+00" cType="1"     res="     5.303467E-02" rms="0.0e-00"     purity="0.00000000E+00" nType="-99">
                            </Node>
                            <Node pos="r" depth="7" NCoef="0"     IVar="-1" Cut="     0.000000E+00" cType="1"     res="     2.029042E-01" rms="0.0e-00"     purity="0.00000000E+00" nType="-99">
                            </Node>
                        </Node>
                        <Node pos="r" depth="6" NCoef="0"     IVar="0" Cut="     5.463832E-02" cType="1"     res="     0.000000E+00" rms="0.0"     purity="0.00000000E+00" nType="0">
                            <Node pos="l" depth="7" NCoef="0"     IVar="-1" Cut="     0.000000E+00" cType="1"     res="     1.633776E-01" rms="0.0e-00"     purity="0.00000000E+00" nType="-99">
                            </Node>
                            <Node pos="r" depth="7" NCoef="0"     IVar="-1" Cut="     0.000000E+00" cType="1"     res="     2.722528E-01" rms="0.0e-00"     purity="0.00000000E+00" nType="-99">
                            </Node>
                        </Node>
                    </Node>
                    <Node pos="r" depth="5" NCoef="0"     IVar="6" Cut="    -3.895396E-01" cType="1"     res="     0.000000E+00" rms="0.0"     purity="0.00000000E+00" nType="0">
                        <Node pos="l" depth="6" NCoef="0"     IVar="3" Cut="     3.424647E-01" cType="1"     res="     0.000000E+00" rms="0.0"     purity="0.00000000E+00" nType="0">
                            <Node pos="l" depth="7" NCoef="0"     IVar="-1" Cut="     0.000000E+00" cType="1"     res="     2.593752E-01" rms="0.0e-00"     purity="0.00000000E+00" nType="-99">
                            </Node>
                            <Node pos="r" depth="7" NCoef="0"     IVar="-1" Cut="     0.000000E+00" cType="1"     res="     3.089950E-01" rms="0.0e-00"     purity="0.00000000E+00" nType="-99">
                            </Node>
                        </Node>
                        <Node pos="r" depth="6" NCoef="0"     IVar="2" Cut="     9.003347E-01" cType="1"     res="     0.000000E+00" rms="0.0"     purity="0.00000000E+00" nType="0">
                            <Node pos="l" depth="7" NCoef="0"     IVar="-1" Cut="     0.000000E+00" cType="1"     res="     3.077285E-01" rms="0.0e-00"     purity="0.00000000E+00" nType="-99">
                            </Node>
                            <Node pos="r" depth="7" NCoef="0"     IVar="-1" Cut="     0.000000E+00" cType="1"     res="     3.488936E-01" rms="0.0e-00"     purity="0.00000000E+00" nType="-99">
                            </Node>
                        </Node>
                    </Node>
                </Node>
                <Node pos="r" depth="4" NCoef="0"     IVar="2" Cut="     7.931657E-01" cType="1"     res="     0.000000E+00" rms="0.0"     purity="0.00000000E+00" nType="0">
                    <Node pos="l" depth="5" NCoef="0"     IVar="0" Cut="    -6.609997E-01" cType="1"     res="     0.000000E+00" rms="0.0"     purity="0.00000000E+00" nType="0">
                        <Node pos="l" depth="6" NCoef="0"     IVar="2" Cut="     5.992161E-01" cType="1"     res="     0.000000E+00" rms="0.0"     purity="0.00000000E+00" nType="0">
                            <Node pos="l" depth="7" NCoef="0"     IVar="-1" Cut="     0.000000E+00" cType="1"     res="     1.413027E-01" rms="0.0e-00"     purity="0.00000000E+00" nType="-99">
                            </Node>
                            <Node pos="r" depth="7" NCoef="0"     IVar="-1" Cut="     0.000000E+00" cType="1"     res="     2.864693E-01" rms="0.0e-00"     purity="0.00000000E+00" nType="-99">
                            </Node>
                        </Node>
                        <Node pos="r" depth="6" NCoef="0"     IVar="3" Cut="     5.039648E-01" cType="1"     res="     0.000000E+00" rms="0.0"     purity="0.00000000E+00" nType="0">
                            <Node pos="l" depth="7" NCoef="0"     IVar="-1" Cut="     0.000000E+00" cType="1"     res="     3.352394E-01" rms="0.0e-00"     purity="0.00000000E+00" nType="-99">
                            </Node>
                            <Node pos="r" depth="7" NCoef="0"     IVar="-1" Cut="     0.000000E+00" cType="1"     res="     3.619207E-01" rms="0.0e-00"     purity="0.00000000E+00" nType="-99">
                            </Node>
                        </Node>
                    </Node>
                    <Node pos="r" depth="5" NCoef="0"     IVar="6" Cut="     2.226226E-01" cType="1"     res="     0.000000E+00" rms="0.0"     purity="0.00000000E+00" nType="0">
                        <Node pos="l" depth="6" NCoef="0"     IVar="8" Cut="     1.604849E-02" cType="1"     res="     0.000000E+00" rms="0.0"     purity="0.00000000E+00" nType="0">
                            <Node pos="l" depth="7" NCoef="0"     IVar="-1" Cut="     0.000000E+00" cType="1"     res="     3.719679E-01" rms="0.0e-00"     purity="0.00000000E+00" nType="-99">
                            </Node>
                            <Node pos="r" depth="7" NCoef="0"     IVar="-1" Cut="     0.000000E+00" cType="1"     res="     3.360181E-01" rms="0.0e-00"     purity="0.00000000E+00" nType="-99">
                            </Node>
                        </Node>
                        <Node pos="r" depth="6" NCoef="0"     IVar="3" Cut="     7.101927E-01" cType="1"     res="     0.000000E+00" rms="0.0"     purity="0.00000000E+00" nType="0">
                            <Node pos="l" depth="7" NCoef="0"     IVar="-1" Cut="     0.000000E+00" cType="1"     res="     3.848379E-01" rms="0.0e-00"     purity="0.00000000E+00" nType="-99">
                            </Node>
                            <Node pos="r" depth="7" NCoef="0"     IVar="-1" Cut="     0.000000E+00" cType="1"     res="     3.974086E-01" rms="0.0e-00"     purity="0.00000000E+00" nType="-99">
                            </Node>
                        </Node>
                    </Node>
                </Node>
            </Node>
        </Node>
    </Node>
</BinaryTree>
<BinaryTree type="DecisionTree" boostWeight="0.0" itree="3">
    <Node pos="c" depth="1" NCoef="0"     IVar="1" Cut="     2.486920E-02" cType="1"     res="     0.000000E+00" rms="0.0"     purity="0.00000000E+00" nType="0">
        <Node pos="l" depth="2" NCoef="0"     IVar="6" Cut="    -6.919532E-01" cType="1"     res="     0.000000E+00" rms="0.0"     purity="0.00000000E+00" nType="0">
            <Node pos="l" depth="3" NCoef="0"     IVar="1" Cut="    -6.282605E-01" cType="1"     res="     0.000000E+00" rms="0.0"     purity="0.00000000E+00" nType="0">
                <Node pos="l" depth="4" NCoef="0"     IVar="3" Cut="     4.050619E-01" cType="1"     res="     0.000000E+00" rms="0.0"     purity="0.00000000E+00" nType="0">
                    <Node pos="l" depth="5" NCoef="0"     IVar="6" Cut="    -9.762973E-01" cType="1"     res="     0.000000E+00" rms="0.0"     purity="0.00000000E+00" nType="0">
                        <Node pos="l" depth="6" NCoef="0"     IVar="2" Cut="     6.085227E-01" cType="1"     res="     0.000000E+00" rms="0.0"     purity="0.00000000E+00" nType="0">
                            <Node pos="l" depth="7" NCoef="0"     IVar="-1" Cut="     0.000000E+00" cType="1"     res="    -2.634637E-01" rms="0.0e-00"     purity="0.00000000E+00" nType="-99">
                            </Node>
                            <Node pos="r" depth="7" NCoef="0"     IVar="-1" Cut="     0.000000E+00" cType="1"     res="    -1.919149E-01" rms="0.0e-00"     purity="0.00000000E+00" nType="-99">
                            </Node>
                        </Node>
                        <Node pos="r" depth="6" NCoef="0"     IVar="2" Cut="     5.777463E-01" cType="1"     res="     0.000000E+00" rms="0.0"     purity="0.00000000E+00" nType="0">
                            <Node pos="l" depth="7" NCoef="0"     IVar="-1" Cut="     0.000000E+00" cType="1"     res="    -2.046304E-01" rms="0.0e-00"     purity="0.00000000E+00" nType="-99">
                            </Node>
                            <Node pos="r" depth="7" NCoef="0"     IVar="-1" Cut="     0.000000E+00" cType="1"     res="    -8.907489E-02" rms="0.0e-00"     purity="0.00000000E+00" nType="-99">
                            </Node>
                        </Node>
                    </Node>
                    <Node pos="r" depth="5" NCoef="0"     IVar="6" Cut="    -9.514590E-01" cType="1"     res="     0.000000E+00" rms="0.0"     purity="0.00000000E+00" nType="0">
                        <Node pos="l" depth="6" NCoef="0"     IVar="3" Cut="     4.669257E-01" cType="1"     res="     0.000000E+00" rms="0.0"     purity="0.00000000E+00" nType="0">
                            <Node pos="l" depth="7" NCoef="0"     IVar="-1" Cut="     0.000000E+00" cType="1"     res="    -1.433493E-01" rms="0.0e-00"     purity="0.00000000E+00" nType="-99">
                            </Node>
                            <Node pos="r" depth="7" NCoef="0"     IVar="-1" Cut="     0.000000E+00" cType="1"     res="     2.440741E-02" rms="0.0e-00"     purity="0.00000000E+00" nType="-99">
                            </Node>
                        </Node>
                        <Node pos="r" depth="6" NCoef="0"     IVar="5" Cut="    -2.057005E+00" cType="1"     res="     0.000000E+00" rms="0.0"     purity="0.00000000E+00" nType="0">
                            <Node pos="l" depth="7" NCoef="0"     IVar="-1" Cut="     0.000000E+00" cType="1"     res="    -3.005981E-01" rms="0.0e-00"     purity="0.00000000E+00" nType="-99">
                            </Node>
                            <Node pos="r" depth="7" NCoef="0"     IVar="-1" Cut="     0.000000E+00" cType="1"     res="     2.359526E-02" rms="0.0e-00"     purity="0.00000000E+00" nType="-99">
                            </Node>
                        </Node>
                    </Node>
                </Node>
                <Node pos="r" depth="4" NCoef="0"     IVar="3" Cut="     3.151223E-01" cType="1"     res="     0.000000E+00" rms="0.0"     purity="0.00000000E+00" nType="0">
                    <Node pos="l" depth="5" NCoef="0"     IVar="2" Cut="     6.300216E-01" cType="1"     res="     0.000000E+00" rms="0.0"     purity="0.00000000E+00" nType="0">
                        <Node pos="l" depth="6" NCoef="0"     IVar="6" Cut="    -9.841655E-01" cType="1"     res="     0.000000E+00" rms="0.0"     purity="0.00000000E+00" nType="0">
                            <Node pos="l" depth="7" NCoef="0"     IVar="-1" Cut="     0.000000E+00" cType="1"     res="    -2.330786E-01" rms="0.0e-00"     purity="0.00000000E+00" nType="-99">
                            </Node>
                            <Node pos="r" depth="7" NCoef="0"     IVar="-1" Cut="     0.000000E+00" cType="1"     res="    -1.137598E-01" rms="0.0e-00"     purity="0.00000000E+00" nType="-99">
                            </Node>
                        </Node>
                        <Node pos="r" depth="6" NCoef="0"     IVar="7" Cut="     9.998341E-01" cType="1"     res="     0.000000E+00" rms="0.0"     purity="0.00000000E+00" nType="0">
                            <Node pos="l" depth="7" NCoef="0"     IVar="-1" Cut="     0.000000E+00" cType="1"     res="    -5.654809E-02" rms="0.0e-00"     purity="0.00000000E+00" nType="-99">
                            </Node>
                            <Node pos="r" depth="7" NCoef="0"     IVar="-1" Cut="     0.000000E+00" cType="1"     res="     5.709687E-02" rms="0.0e-00"     purity="0.00000000E+00" nType="-99">
                            </Node>
                        </Node>
                    </Node>
                    <Node pos="r" depth="5" NCoef="0"     IVar="6" Cut="    -9.335005E-01" cType="1"     res="     0.000000E+00" rms="0.0"     purity="0.00000000E+00" nType="0">
                        <Node pos="l" depth="6" NCoef="0"     IVar="3" Cut="     4.348617E-01" cType="1"     res="     0.000000E+00" rms="0.0"     purity="0.00000000E+00" nType="0">
                            <Node pos="l" depth="7" NCoef="0"     IVar="-1" Cut="     0.000000E+00" cType="1"     res="    -2.944613E-02" rms="0.0e-00"     purity="0.00000000E+00" nType="-99">
                            </Node>
                            <Node pos="r" depth="7" NCoef="0"     IVar="-1" Cut="     0.000000E+00" cType="1"     res="     7.926164E-02" rms="0.0e-00"     purity="0.00000000E+00" nType="-99">
                            </Node>
                        </Node>
                        <Node pos="r" depth="6" NCoef="0"     IVar="0" Cut="    -6.859907E-01" cType="1"     res="     0.000000E+00" rms="0.0"     purity="0.00000000E+00" nType="0">
                            <Node pos="l" depth="7" NCoef="0"     IVar="-1" Cut="     0.000000E+00" cType="1"     res="    -1.893903E-01" rms="0.0e-00"     purity="0.00000000E+00" nType="-99">
                            </Node>
                            <Node pos="r" depth="7" NCoef="0"     IVar="-1" Cut="     0.000000E+00" cType="1"     res="     1.249959E-01" rms="0.0e-00"     purity="0.00000000E+00" nType="-99">
                            </Node>
                        </Node>
                    </Node>
                </Node>
            </Node>
            <Node pos="r" depth="3" NCoef="0"     IVar="3" Cut="     4.050619E-01" cType="1"     res="     0.000000E+00" rms="0.0"     purity="0.00000000E+00" nType="0">
                <Node pos="l" depth="4" NCoef="0"     IVar="2" Cut="     7.341602E-01" cType="1"     res="     0.000000E+00" rms="0.0"     purity="0.00000000E+00" nType="0">
                    <Node pos="l" depth="5" NCoef="0"     IVar="1" Cut="    -7.344470E-01" cType="1"     res="     0.000000E+00" rms="0.0"     purity="0.00000000E+00" nType="0">
                        <Node pos="l" depth="6" NCoef="0"     IVar="5" Cut="    -1.172386E+00" cType="1"     res="     0.000000E+00" rms="0.0"     purity="0.00000000E+00" nType="0">
                            <Node pos="l" depth="7" NCoef="0"     IVar="-1" Cut="     0.000000E+00" cType="1"     res="     3.916523E-02" rms="0.0e-00"     purity="0.00000000E+00" nType="-99">
                            </Node>
                            <Node pos="r" depth="7" NCoef="0"     IVar="-1" Cut="     0.000000E+00" cType="1"     res="    -1.573095E-01" rms="0.0e-00"     purity="0.00000000E+00" nType="-99">
                            </Node>
                        </Node>
                        <Node pos="r" depth="6" NCoef="0"     IVar="4" Cut="    -1.873968E+00" cType="1"     res="     0.000000E+00" rms="0.0"     purity="0.00000000E+00" nType="0">
                            <Node pos="l" depth="7" NCoef="0"     IVar="-1" Cut="     0.000000E+00" cType="1"     res="    -1.568065E-01" rms="0.0e-00"     purity="0.00000000E+00" nType="-99">
                            </Node>
                            <Node pos="r" depth="7" NCoef="0"     IVar="-1" Cut="     0.000000E+00" cType="1"     res="     1.051718E-01" rms="0.0e-00"     purity="0.00000000E+00" nType="-99">
                            </Node>
                        </Node>
                    </Node>
                    <Node pos="r" depth="5" NCoef="0"     IVar="1" Cut="    -6.282605E-01" cType="1"     res="     0.000000E+00" rms="0.0"     purity="0.00000000E+00" nType="0">
                        <Node pos="l" depth="6" NCoef="0"     IVar="3" Cut="     3.104934E-01" cType="1"     res="     0.000000E+00" rms="0.0"     purity="0.00000000E+00" nType="0">
                            <Node pos="l" depth="7" NCoef="0"     IVar="-1" Cut="     0.000000E+00" cType="1"     res="     1.051759E-02" rms="0.0e-00"     purity="0.00000000E+00" nType="-99">
                            </Node>
                            <Node pos="r" depth="7" NCoef="0"     IVar="-1" Cut="     0.000000E+00" cType="1"     res="     1.373633E-01" rms="0.0e-00"     purity="0.00000000E+00" nType="-99">
                            </Node>
                        </Node>
                        <Node pos="r" depth="6" NCoef="0"     IVar="3" Cut="     2.907858E-01" cType="1"     res="     0.000000E+00" rms="0.0"     purity="0.00000000E+00" nType="0">
                            <Node pos="l" depth="7" NCoef="0"     IVar="-1" Cut="     0.000000E+00" cType="1"     res="     1.411280E-01" rms="0.0e-00"     purity="0.00000000E+00" nType="-99">
                            </Node>
                            <Node pos="r" depth="7" NCoef="0"     IVar="-1" Cut="     0.000000E+00" cType="1"     res="     2.418155E-01" rms="0.0e-00"     purity="0.00000000E+00" nType="-99">
                            </Node>
                        </Node>
                    </Node>
                </Node>
                <Node pos="r" depth="4" NCoef="0"     IVar="6" Cut="    -3.810078E-01" cType="1"     res="     0.000000E+00" rms="0.0"     purity="0.00000000E+00" nType="0">
                    <Node pos="l" depth="5" NCoef="0"     IVar="1" Cut="    -5.309190E-01" cType="1"     res="     0.000000E+00" rms="0.0"     purity="0.00000000E+00" nType="0">
                        <Node pos="l" depth="6" NCoef="0"     IVar="0" Cut="    -6.859907E-01" cType="1"     res="     0.000000E+00" rms="0.0"     purity="0.00000000E+00" nType="0">
                            <Node pos="l" depth="7" NCoef="0"     IVar="-1" Cut="     0.000000E+00" cType="1"     res="    -2.829832E-01" rms="0.0e-00"     purity="0.00000000E+00" nType="-99">
                            </Node>
                            <Node pos="r" depth="7" NCoef="0"     IVar="-1" Cut="     0.000000E+00" cType="1"     res="     1.582682E-01" rms="0.0e-00"     purity="0.00000000E+00" nType="-99">
                            </Node>
                        </Node>
                        <Node pos="r" depth="6" NCoef="0"     IVar="4" Cut="     1.585156E+00" cType="1"     res="     0.000000E+00" rms="0.0"     purity="0.00000000E+00" nType="0">
                            <Node pos="l" depth="7" NCoef="0"     IVar="-1" Cut="     0.000000E+00" cType="1"     res="     2.555673E-01" rms="0.0e-00"     purity="0.00000000E+00" nType="-99">
                            </Node>
                            <Node pos="r" depth="7" NCoef="0"     IVar="-1" Cut="     0.000000E+00" cType="1"     res="     1.158133E-01" rms="0.0e-00"     purity="0.00000000E+00" nType="-99">
                            </Node>
                        </Node>
                    </Node>
                    <Node pos="r" depth="5" NCoef="0"     IVar="2" Cut="     6.379734E-01" cType="1"     res="     0.000000E+00" rms="0.0"     purity="0.00000000E+00" nType="0">
                        <Node pos="l" depth="6" NCoef="0"     IVar="1" Cut="    -8.239818E-01" cType="1"     res="     0.000000E+00" rms="0.0"     purity="0.00000000E+00" nType="0">
